{"learner":{"attributes":{"best_iteration":"26","best_ntree_limit":"27","best_score":"0.00316260450123452","scikit_learn":"{\"use_label_encoder\": false, \"n_estimators\": 100, \"objective\": \"binary:logistic\", \"max_depth\": null, \"max_leaves\": null, \"max_bin\": null, \"grow_policy\": null, \"learning_rate\": null, \"verbosity\": null, \"booster\": null, \"tree_method\": null, \"gamma\": null, \"min_child_weight\": null, \"max_delta_step\": null, \"subsample\": null, \"sampling_method\": null, \"colsample_bytree\": null, \"colsample_bylevel\": null, \"colsample_bynode\": null, \"reg_alpha\": null, \"reg_lambda\": null, \"scale_pos_weight\": null, \"base_score\": null, \"missing\": NaN, \"num_parallel_tree\": null, \"random_state\": null, \"n_jobs\": null, \"monotone_constraints\": null, \"interaction_constraints\": null, \"importance_type\": null, \"gpu_id\": null, \"validate_parameters\": null, \"predictor\": null, \"enable_categorical\": false, \"max_cat_to_onehot\": null, \"eval_metric\": [\"auc\", \"error\", \"logloss\"], \"early_stopping_rounds\": 30, \"callbacks\": null, \"classes_\": [0, 1], \"n_classes_\": 2, \"evals_result_\": {\"validation_0\": {\"auc\": [0.9027160868214799, 0.902739052846959, 0.9075602960619499, 0.9075683213645337, 0.9075693458712465, 0.9075637964598854, 0.9075465505968862, 0.9075481727325148, 0.9074909711077155, 0.9071309423737172, 0.9071213803110642, 0.9285803564156403, 0.9446622090379592, 0.9447741363963352, 0.947311498021763, 0.9518290603719608, 0.9524345438392399, 0.9506938215585923, 0.9507888445562067, 0.950677173324509, 0.9610504745429719, 0.9668254481320425, 0.972251662560956, 0.9671160665362469, 0.9715777932705959, 0.9711396458997449, 0.9721233430951748, 0.9666273768342298, 0.966007294146293, 0.9663376975611788, 0.9656225065000682, 0.9666243033140914, 0.967983823722009, 0.9688089785036293, 0.9702321037033015, 0.9696809190918021, 0.971045391282165, 0.9695658328377282, 0.9690639952995632, 0.9703009164041795, 0.9713074942495292, 0.9710862007995592, 0.9710522213269172, 0.9716783656795716, 0.9715205916457966, 0.9713856982619414, 0.9710983241289943, 0.9712352665262751, 0.9718866820445125, 0.972983928733947, 0.9737390755568578, 0.9745795979391706, 0.9743707693208733, 0.9736046090507997, 0.9741192529228749, 0.9744465828176223, 0.9742232403542266], \"error\": [0.00070222253432113, 0.00066711140760507, 0.00063200028088901, 0.00061444471753099, 0.00064955584424704, 0.00061444471753099, 0.00059688915417296, 0.00059688915417296, 0.00059688915417296, 0.00057933359081493, 0.00057933359081493, 0.00057933359081493, 0.00054422246409887, 0.0005617780274569, 0.00052666690074084, 0.00052666690074084, 0.00052666690074084, 0.00052666690074084, 0.00052666690074084, 0.00052666690074084, 0.00052666690074084, 0.00052666690074084, 0.00049155577402479, 0.00050911133738282, 0.00050911133738282, 0.00050911133738282, 0.00052666690074084, 0.00050911133738282, 0.00050911133738282, 0.00050911133738282, 0.00050911133738282, 0.00050911133738282, 0.00050911133738282, 0.00050911133738282, 0.00050911133738282, 0.00047400021066676, 0.00047400021066676, 0.00050911133738282, 0.00052666690074084, 0.00049155577402479, 0.00049155577402479, 0.00049155577402479, 0.00047400021066676, 0.00049155577402479, 0.00049155577402479, 0.00049155577402479, 0.00049155577402479, 0.00049155577402479, 0.00049155577402479, 0.00050911133738282, 0.00050911133738282, 0.00050911133738282, 0.00050911133738282, 0.00049155577402479, 0.00049155577402479, 0.00050911133738282, 0.00049155577402479], \"logloss\": [0.43805987747985614, 0.29717655474571386, 0.2084505311881327, 0.1490950542752095, 0.1080601348686112, 0.07909098383613314, 0.05836352406438555, 0.04339369743980544, 0.03251499763815927, 0.0245975320504771, 0.01881964462110961, 0.01457117663048364, 0.01143039578737475, 0.00916519625192561, 0.00751101697693985, 0.00628242484229345, 0.00538549948516438, 0.00475012750238799, 0.00428300921006617, 0.00395905574062849, 0.00373309805757522, 0.00353696177606514, 0.00340950776268268, 0.00331135347320537, 0.00321907281313374, 0.00319651874673002, 0.00316260450123452, 0.00316805691774827, 0.00316778881390805, 0.00318919609668521, 0.00319829575157387, 0.00324588891689415, 0.00323222551981119, 0.00323653479796623, 0.00321263763512138, 0.00323400493845512, 0.00322912198208838, 0.00325302062469093, 0.00327885527801937, 0.00327630272182893, 0.00328014569659188, 0.00331302798925706, 0.00332582481675403, 0.00333669094398357, 0.00336109380907913, 0.00337110743287859, 0.00338242722070805, 0.00340378141851989, 0.00340182784001686, 0.00339561128967854, 0.00341550530406571, 0.00341350402022497, 0.00341693967786333, 0.00345627131466183, 0.00347370258610848, 0.00349572018050712, 0.00350198021114195]}}, \"_estimator_type\": \"classifier\"}"},"feature_names":["V1","V2","V3","V4","V5","V6","V7","V8","V9","V10","V11","V12","V13","V14","V15","V16","V17","V18","V19","V20","V21","V22","V23","V24","V25","V26","V27","V28","Amount"],"feature_types":["float","float","float","float","float","float","float","float","float","float","float","float","float","float","float","float","float","float","float","float","float","float","float","float","float","float","float","float","float"],"gradient_booster":{"model":{"gbtree_model_param":{"num_parallel_tree":"1","num_trees":"57","size_leaf_vector":"0"},"tree_info":[0,0,0,0,0,0,0,0,0,0,0,0,0,0,0,0,0,0,0,0,0,0,0,0,0,0,0,0,0,0,0,0,0,0,0,0,0,0,0,0,0,0,0,0,0,0,0,0,0,0,0,0,0,0,0,0,0],"trees":[{"base_weights":[-1.9931358E0,1.043956E0,-1.9979603E0,1.2857143E0,-1.625E0,1.25E0,-1.9983821E0,1.4851485E0,-4.864865E-1,1.7142857E0,-1E0,-1.3782383E0,-1.9988736E0,5.822785E-1,1.7719299E0,-1E0,7.692308E-1,7.619048E-1,-1.9225806E0,-0E0,-1.9989088E0,1.7692307E0,-1.483871E0,-5E-1,1.8214285E0,-1.3333334E-1,-1.5294118E0,-0E0,1.1111112E0,1.5E0,-1.1428572E0,-5E-1,-1.9470198E0,5E-1,1.8333334E0,-0E0,-1.7037038E0,9.5652175E-1,1.8829268E0,-9.0909094E-1,1E0,1.7037038E0,2.2222222E-1],"categories":[],"categories_nodes":[],"categories_segments":[],"categories_sizes":[],"default_left":[1,1,1,1,0,1,1,1,1,0,0,1,1,1,1,1,1,1,1,0,0,1,1,0,1,1,0,0,0,1,0,0,0,0,0,0,0,0,0,0,0,0,0],"id":0,"left_children":[1,3,5,7,-1,9,11,13,15,-1,-1,17,19,21,23,25,27,29,31,-1,-1,33,35,-1,37,39,-1,-1,-1,41,-1,-1,-1,-1,-1,-1,-1,-1,-1,-1,-1,-1,-1],"loss_changes":[8.3671875E2,6.080632E1,8.0421875E1,3.0411255E1,0E0,1.0071428E1,1.4578125E1,1.8581894E1,6.7338877E0,0E0,0E0,5.7674652E1,3.984375E0,5.106062E1,7.320816E0,3.007843E0,8.547008E-1,1.647619E1,3.73703E-1,0E0,0E0,1.4102554E-1,2.5280762E0,0E0,1.1775818E0,4.2060604E0,0E0,0E0,0E0,1.7037029E0,0E0,0E0,0E0,0E0,0E0,0E0,0E0,0E0,0E0,0E0,0E0,0E0,0E0],"parents":[2147483647,0,0,1,1,2,2,3,3,5,5,6,6,7,7,8,8,11,11,12,12,13,13,14,14,15,15,16,16,17,17,18,18,21,21,22,22,24,24,25,25,29,29],"right_children":[2,4,6,8,-1,10,12,14,16,-1,-1,18,20,22,24,26,28,30,32,-1,-1,34,36,-1,38,40,-1,-1,-1,42,-1,-1,-1,-1,-1,-1,-1,-1,-1,-1,-1,-1,-1],"split_conditions":[-2.7539396E0,-2.18088E0,-7.7548723E0,-3.4298277E0,-4.875E-1,-4.1607437E0,-4.6614537E0,-2.746519E-1,3.123598E-1,5.1428574E-1,-3E-1,-1.8473043E0,-4.87277E0,1.077147E0,-3.0214373E1,-1.6237953E0,1.3507502E-1,3.1672409E0,-2.9587798E0,-0E0,-5.996727E-1,-6.431794E-1,-3.957893E0,-1.5E-1,1.7236974E0,1.2790272E-1,-4.5882356E-1,-0E0,3.3333337E-1,3.646916E0,-3.4285718E-1,-1.5E-1,-5.8410597E-1,1.5E-1,5.5E-1,-0E0,-5.1111114E-1,2.8695655E-1,5.6487805E-1,-2.7272728E-1,3E-1,5.1111114E-1,6.666667E-2],"split_indices":[16,11,13,13,0,2,13,25,19,0,0,9,11,26,0,17,5,17,11,0,0,1,5,0,3,22,0,0,0,4,0,0,0,0,0,0,0,0,0,0,0,0,0],"split_type":[0,0,0,0,0,0,0,0,0,0,0,0,0,0,0,0,0,0,0,0,0,0,0,0,0,0,0,0,0,0,0,0,0,0,0,0,0,0,0,0,0,0,0],"sum_hessian":[5.696125E4,9E1,5.687125E4,8.3E1,7E0,7E0,5.686425E4,7.475E1,8.25E0,6E0,1E0,4.725E1,5.6817E4,1.875E1,5.6E1,6E0,2.25E0,9.5E0,3.775E1,1E0,5.6816E4,1.2E1,6.75E0,1E0,5.5E1,2.75E0,3.25E0,1E0,1.25E0,7E0,2.5E0,1E0,3.675E1,1E0,1.1E1,1E0,5.75E0,4.75E0,5.025E1,1.75E0,1E0,5.75E0,1.25E0],"tree_param":{"num_deleted":"0","num_feature":"29","num_nodes":"43","size_leaf_vector":"0"}},{"base_weights":[-1.5432558E0,7.9198796E-1,-1.5470523E0,1.0194393E0,-1.02916E0,9.579311E-1,-1.5473882E0,2.8234285E-1,1.2973264E0,2.840949E-1,-1.2770836E0,1.3477021E0,-6.0037863E-1,-1.0610741E0,-1.5477779E0,1.0130885E0,-1.0503281E0,-1.095972E-1,1.3986324E0,-2.1494615E-1,-1.4175119E0,5.849925E-1,-1.4945463E0,-0E0,-1.5478077E0,1.4059685E0,-7.1476054E-1,1.6244191E-1,-1.2830924E0,5.768565E-1,-9.696489E-1,-6.016232E-1,1.4601172E0,1.1336074E0,-1.1286614E0,-5.22367E-1,-1.5188761E0,1.4777191E0,3.7964767E-1,-1.3598616E-1,-9.655173E-1,1.5345943E0,8.0681515E-1,8.7913945E-2,1.3013566E0],"categories":[],"categories_nodes":[],"categories_segments":[],"categories_sizes":[],"default_left":[1,1,1,1,1,1,1,1,1,0,1,0,0,1,1,1,1,1,1,0,0,1,1,0,0,1,1,0,0,0,0,0,1,1,0,0,0,0,0,0,0,0,0,0,0],"id":1,"left_children":[1,3,5,7,9,11,13,15,17,-1,19,-1,-1,21,23,25,27,29,31,-1,-1,33,35,-1,-1,37,39,-1,-1,-1,-1,-1,41,43,-1,-1,-1,-1,-1,-1,-1,-1,-1,-1,-1],"loss_changes":[4.634453E2,3.637521E1,4.528125E1,1.5265556E1,3.6077347E0,5.424007E0,8.21875E0,2.2656555E1,8.012924E0,0E0,9.7291183E-1,0E0,0E0,3.287343E1,2.3984375E0,1.1071569E1,2.5636253E0,3.29359E0,7.213745E0,0E0,0E0,1.0743618E1,5.2886963E-2,0E0,0E0,3.5351562E-1,3.6362863E-1,0E0,0E0,0E0,0E0,0E0,1.2077179E0,1.3107357E0,0E0,0E0,0E0,0E0,0E0,0E0,0E0,0E0,0E0,0E0,0E0],"parents":[2147483647,0,0,1,1,2,2,3,3,4,4,5,5,6,6,7,7,8,8,10,10,13,13,14,14,15,15,16,16,17,17,18,18,21,21,22,22,25,25,26,26,32,32,33,33],"right_children":[2,4,6,8,10,12,14,16,18,-1,20,-1,-1,22,24,26,28,30,32,-1,-1,34,36,-1,-1,38,40,-1,-1,-1,-1,-1,42,44,-1,-1,-1,-1,-1,-1,-1,-1,-1,-1,-1],"split_conditions":[-2.7539396E0,-1.3913988E0,-7.7548723E0,-2.6447022E-1,-4.2915273E0,-4.9287767E0,-4.6614537E0,1.0723696E0,1.184948E0,8.522847E-2,-1.6730924E0,4.0431067E-1,-1.801136E-1,-1.8473043E0,-4.87277E0,-3.1120129E0,-3.957893E0,-3.054733E0,-3.0214373E1,-6.448385E-2,-4.252536E-1,2.7543538E0,-2.2825158E0,-0E0,-4.6434233E-1,-2.831235E-1,5.123027E-1,4.8732575E-2,-3.8492772E-1,1.7305696E-1,-2.908947E-1,-1.8048696E-1,1.0161924E0,1.9322238E0,-3.3859843E-1,-1.567101E-1,-4.5566285E-1,4.4331574E-1,1.13894306E-1,-4.079585E-2,-2.896552E-1,4.6037832E-1,2.4204455E-1,2.6374185E-2,3.90407E-1],"split_indices":[16,9,13,25,11,2,13,26,3,0,17,0,0,9,11,13,5,13,0,0,0,15,8,0,0,25,20,0,0,0,0,0,24,3,0,0,0,0,0,0,0,0,0,0,0],"split_type":[0,0,0,0,0,0,0,0,0,0,0,0,0,0,0,0,0,0,0,0,0,0,0,0,0,0,0,0,0,0,0,0,0,0,0,0,0,0,0,0,0,0,0,0,0],"sum_hessian":[5.2135105E4,8.428272E1,5.2050824E4,7.5316345E1,8.966379E0,6.5979543E0,5.2044223E4,2.1172434E1,5.4143913E1,1.4007401E0,7.565639E0,5.385949E0,1.212005E0,4.38466E1,5.200038E4,1.3829234E1,7.3431997E0,3.6312804E0,5.0512634E1,1.1789827E0,6.3866563E0,9.066798E0,3.47798E1,1E0,5.199938E4,1.1419048E1,2.4101853E0,1.2310716E0,6.112128E0,2.2025685E0,1.4287119E0,1.244396E0,4.9268238E1,7.1244416E0,1.9423571E0,1.3977624E0,3.338204E1,1.0261818E1,1.1572301E0,1.1947873E0,1.2153981E0,4.3015453E1,6.2527857E0,1.1955919E0,5.9288497E0],"tree_param":{"num_deleted":"0","num_feature":"29","num_nodes":"45","size_leaf_vector":"0"}},{"base_weights":[-1.3395458E0,6.486567E-1,-1.3429505E0,8.157771E-1,-1.1093068E0,7.9235345E-1,-1.343258E0,9.611188E-1,-3.4253904E-1,-1.2029787E0,-3.0699912E-1,1.1682967E0,-5.78877E-1,-9.8224175E-1,-1.3437285E0,1.1053373E0,5.1242247E-2,7.7532536E-1,-7.195659E-1,5.260515E-1,-1.2906275E0,1.2136964E0,5.346474E-1,-1.1504983E0,1.0539229E0,-9.059997E-1,9.262573E-2,1.2773927E0,-5.66932E-1,-2.5337994E-1,-1.3096842E0,1.0311278E-1,1.2586733E0,-4.4634354E-1,1.1651573E0,3.157091E-1,1.1476725E0,-1.1624248E0,-1.24327704E-1,1.4188836E0,2.635609E-1,-1.0827485E0,2.648062E-1,-1.3275732E0,-4.0480858E-1],"categories":[],"categories_nodes":[],"categories_segments":[],"categories_sizes":[],"default_left":[1,1,1,1,1,1,1,1,1,0,0,0,0,1,0,1,1,0,1,1,1,1,1,0,1,1,0,1,1,0,1,0,0,0,0,0,0,0,0,0,0,0,0,0,0],"id":2,"left_children":[1,3,5,7,9,11,13,15,17,-1,-1,-1,-1,19,-1,21,23,-1,25,27,29,31,33,-1,35,37,-1,39,41,-1,43,-1,-1,-1,-1,-1,-1,-1,-1,-1,-1,-1,-1,-1,-1],"loss_changes":[2.9509375E2,2.2932924E1,2.9554688E1,1.195314E1,1.5170956E-1,4.221376E0,6.0546875E0,8.027954E0,4.112939E0,0E0,0E0,0E0,0E0,2.8674423E1,0E0,2.6367874E0,1.2633165E1,0E0,1.1175466E0,9.697853E0,6.616211E-1,2.0613785E0,6.869805E0,0E0,3.1378746E-2,9.8688173E-1,0E0,5.990753E-1,2.493719E0,0E0,2.576065E-1,0E0,0E0,0E0,0E0,0E0,0E0,0E0,0E0,0E0,0E0,0E0,0E0,0E0,0E0],"parents":[2147483647,0,0,1,1,2,2,3,3,4,4,5,5,6,6,7,7,8,8,13,13,15,15,16,16,18,18,19,19,20,20,21,21,22,22,24,24,25,25,27,27,28,28,30,30],"right_children":[2,4,6,8,10,12,14,16,18,-1,-1,-1,-1,20,-1,22,24,-1,26,28,30,32,34,-1,36,38,-1,40,42,-1,44,-1,-1,-1,-1,-1,-1,-1,-1,-1,-1,-1,-1,-1,-1],"split_conditions":[-2.7539396E0,-2.18088E0,-7.7548723E0,-3.4298277E0,3.1125798E0,-3.1926915E-1,-4.2095885E0,1.6942103E0,-3.8737422E-1,-3.6089364E-1,-9.209974E-2,3.5048902E-1,-1.736631E-1,-1.8612376E0,-4.0311858E-1,9.623696E-1,-4.552827E-1,2.3259762E-1,3.123598E-1,1.9074208E0,-1.2545376E0,-2.6538849E1,1.0354208E0,-3.451495E-1,-2.3037659E1,5.2349377E-2,2.778772E-2,4.0433083E0,5.4439774E0,-7.601398E-2,1.531903E0,3.0933835E-2,3.77602E-1,-1.3390307E-1,3.495472E-1,9.471274E-2,3.4430176E-1,-3.4872746E-1,-3.7298314E-2,4.2566508E-1,7.906827E-2,-3.2482457E-1,7.944187E-2,-3.9827198E-1,-1.2144258E-1],"split_indices":[16,11,13,13,4,6,13,26,7,0,0,0,0,9,0,14,14,0,19,17,14,0,18,0,2,23,0,3,16,0,18,0,0,0,0,0,0,0,0,0,0,0,0,0,0],"split_type":[0,0,0,0,0,0,0,0,0,0,0,0,0,0,0,0,0,0,0,0,0,0,0,0,0,0,0,0,0,0,0,0,0,0,0,0,0,0,0,0,0,0,0,0,0],"sum_hessian":[4.346432E4,7.397826E1,4.339034E4,6.804548E1,5.932774E0,5.8769016E0,4.3384465E4,6.0610516E1,7.4349627E0,4.865333E0,1.067441E0,4.728505E0,1.1483964E0,5.918772E1,4.3325277E4,5.2132515E1,8.478001E0,1.608734E0,5.826229E0,9.927446E0,4.9260277E1,4.286656E1,9.265953E0,3.7891622E0,4.6888385E0,4.6445904E0,1.1816384E0,5.783215E0,4.1442313E0,1.1466153E0,4.8113663E1,1.7966161E0,4.1069946E1,3.7396455E0,5.5263076E0,1.020521E0,3.6683176E0,3.1305299E0,1.5140609E0,4.724356E0,1.0588588E0,2.371633E0,1.7725984E0,4.6722836E1,1.3908267E0],"tree_param":{"num_deleted":"0","num_feature":"29","num_nodes":"45","size_leaf_vector":"0"}},{"base_weights":[-1.2248452E0,5.4765916E-1,-1.2281251E0,7.2674805E-1,-7.7291566E-1,6.7366326E-1,-1.2284251E0,2.0579058E-1,9.872236E-1,-1.0461496E0,1.23574235E-1,1.0450593E0,-5.547147E-1,-8.695832E-1,-1.228908E0,7.541237E-1,-5.4875743E-1,-1.2341416E-1,1.0824829E0,4.3771347E-1,-1.1666255E0,1.1593841E0,-3.606702E-1,-1.021352E0,4.9297562E-1,-8.0698943E-1,5.107717E-1,1.2028216E0,3.478436E-1,-6.208106E-1,1.0156794E0,-2.0261633E-1,-1.1890062E0,5.605425E-1,-9.5409364E-1,6.6542506E-2,-1.2265205E0,-1.1311265E-1,8.0249035E-1,1.2324563E0,2.0194957E-1,-7.62084E-1,1.083267E0,-1.0289421E0,2.3347911E-1,1.1918409E0,3.91496E-2,-1.2087895E0,-3.4674826E-1],"categories":[],"categories_nodes":[],"categories_segments":[],"categories_sizes":[],"default_left":[1,1,1,1,1,1,1,1,1,0,0,0,0,1,0,1,1,1,1,1,1,0,1,1,1,0,0,1,1,1,1,0,1,0,0,0,0,0,0,0,0,0,0,0,0,0,0,0,0],"id":3,"left_children":[1,3,5,7,9,11,13,15,17,-1,-1,-1,-1,19,-1,21,23,25,27,29,31,-1,33,35,37,-1,-1,39,41,43,45,-1,47,-1,-1,-1,-1,-1,-1,-1,-1,-1,-1,-1,-1,-1,-1,-1,-1],"loss_changes":[2.0245312E2,1.5886623E1,2.0589844E1,7.6096935E0,2.1434698E0,3.3669212E0,4.9335938E0,8.87702E0,4.1667137E0,0E0,0E0,0E0,0E0,1.9914936E1,0E0,5.96041E0,5.026721E0,2.106787E0,2.694519E0,6.735603E0,6.434746E-1,0E0,2.7397273E0,1.5649829E0,7.551797E-1,0E0,0E0,6.3643646E-1,6.0193777E0,1.6854318E0,1.1289768E0,0E0,2.4494171E-1,0E0,0E0,0E0,0E0,0E0,0E0,0E0,0E0,0E0,0E0,0E0,0E0,0E0,0E0,0E0,0E0],"parents":[2147483647,0,0,1,1,2,2,3,3,4,4,5,5,6,6,7,7,8,8,13,13,15,15,16,16,17,17,18,18,19,19,20,20,22,22,23,23,24,24,27,27,28,28,29,29,30,30,32,32],"right_children":[2,4,6,8,10,12,14,16,18,-1,-1,-1,-1,20,-1,22,24,26,28,30,32,-1,34,36,38,-1,-1,40,42,44,46,-1,48,-1,-1,-1,-1,-1,-1,-1,-1,-1,-1,-1,-1,-1,-1,-1,-1],"split_conditions":[-2.7539396E0,-1.3913988E0,-7.7548723E0,-2.2492188E-1,3.172214E0,-3.0114527E0,-4.2095885E0,9.4163394E-1,1.184948E0,-3.138449E-1,3.707227E-2,3.135178E-1,-1.6641441E-1,-1.8612376E0,-3.686724E-1,-3.8302157E0,9.499E1,5.217938E-1,1.0161924E0,-6.6269296E-1,-3.2589096E-1,3.4781525E-1,1.8805549E-2,-1.0758516E1,2.719716E0,-2.4209684E-1,1.5323152E-1,3.1965023E-1,1.5671389E0,-1.3822492E0,-9.068287E-2,-6.0784902E-2,1.515959E0,1.6816276E-1,-2.862281E-1,1.9962752E-2,-3.6795616E-1,-3.3933796E-2,2.4074711E-1,3.697369E-1,6.0584873E-2,-2.2862521E-1,3.249801E-1,-3.0868265E-1,7.0043735E-2,3.575523E-1,1.1744881E-2,-3.6263686E-1,-1.04024485E-1],"split_indices":[16,9,13,25,10,9,13,26,3,0,0,0,0,9,0,13,28,12,24,23,10,0,24,9,10,0,0,4,20,5,5,0,18,0,0,0,0,0,0,0,0,0,0,0,0,0,0,0,0],"split_type":[0,0,0,0,0,0,0,0,0,0,0,0,0,0,0,0,0,0,0,0,0,0,0,0,0,0,0,0,0,0,0,0,0,0,0,0,0,0,0,0,0,0,0,0,0,0,0,0,0],"sum_hessian":[3.4706625E4,6.379869E1,3.4642824E4,5.6575867E1,7.2228255E0,5.109429E0,3.4637715E4,1.9455153E1,3.7120716E1,5.407713E0,1.8151127E0,4.037838E0,1.071591E0,4.8969543E1,3.4588746E4,1.1267544E1,8.187608E0,2.9089866E0,3.4211727E1,8.978995E0,3.9990547E1,8.234179E0,3.0333657E0,5.6458607E0,2.5417473E0,1.268845E0,1.6401416E0,2.884881E1,5.3629174E0,3.1449678E0,5.834028E0,1.1354712E0,3.8855076E1,1.2101594E0,1.8232063E0,1.0030284E0,4.6428323E0,1.0737299E0,1.4680173E0,2.7794466E1,1.0543456E0,2.1228235E0,3.240094E0,1.9898757E0,1.1550922E0,4.755645E0,1.0783827E0,3.753819E1,1.3168865E0],"tree_param":{"num_deleted":"0","num_feature":"29","num_nodes":"49","size_leaf_vector":"0"}},{"base_weights":[-1.1532228E0,4.8250812E-1,-1.1564999E0,7.0446944E-1,-4.272832E-1,5.9402835E-1,-1.1568148E0,8.1204337E-1,-2.835486E-1,2.8500798E-1,-9.2324305E-1,9.4865733E-1,-4.7818428E-1,-7.902319E-1,-1.1573316E0,1.1613207E0,4.0550977E-1,-9.0231866E-1,3.61621E-1,8.2350034E-1,-4.1596147E-1,-1.163339E0,1.6466485E-1,3.5889873E-1,-1.082481E0,-6.626427E-1,7.8233373E-1,7.514016E-1,-2.3372461E-1,9.8875684E-1,-4.9216175E-1,-1.620007E-1,-1.1083637E0,3.9018783E-1,-1.002767E0,9.71351E-1,-1.8200018E-1,1.1208769E0,1.9443525E-1,-9.0252393E-1,1.5978914E-1,-2.519177E-1,-1.1340619E0],"categories":[],"categories_nodes":[],"categories_segments":[],"categories_sizes":[],"default_left":[1,1,1,1,1,1,1,1,1,1,1,0,0,1,0,0,1,0,1,0,0,0,0,1,1,1,1,0,0,1,1,0,1,0,0,0,0,0,0,0,0,0,0],"id":4,"left_children":[1,3,5,7,9,11,13,15,17,19,21,-1,-1,23,-1,-1,25,-1,27,-1,-1,-1,-1,29,31,33,35,-1,-1,37,39,-1,41,-1,-1,-1,-1,-1,-1,-1,-1,-1,-1],"loss_changes":[1.4553906E2,1.1363905E1,1.55703125E1,4.9510937E0,4.27862E0,2.5515234E0,4.1992188E0,5.253435E0,2.363229E0,2.3921463E0,2.003471E0,0E0,0E0,1.4207111E1,0E0,0E0,8.635624E0,0E0,9.2093277E-1,0E0,0E0,0E0,0E0,5.3613853E0,6.079254E-1,2.4684E0,2.9776697E0,0E0,0E0,3.653984E-1,1.3576072E0,0E0,4.1812134E-1,0E0,0E0,0E0,0E0,0E0,0E0,0E0,0E0,0E0,0E0],"parents":[2147483647,0,0,1,1,2,2,3,3,4,4,5,5,6,6,7,7,8,8,9,9,10,10,13,13,16,16,18,18,23,23,24,24,25,25,26,26,29,29,30,30,32,32],"right_children":[2,4,6,8,10,12,14,16,18,20,22,-1,-1,24,-1,-1,26,-1,28,-1,-1,-1,-1,30,32,34,36,-1,-1,38,40,-1,42,-1,-1,-1,-1,-1,-1,-1,-1,-1,-1],"split_conditions":[-2.7690573E0,-1.6214948E0,-7.7548723E0,-3.441557E0,-5.1787746E-1,-3.0114527E0,-4.2095885E0,8.254609E-1,-9.450623E-1,4.751134E-1,3.5245166E0,2.8459722E-1,-1.434553E-1,-1.8612376E0,-3.471995E-1,3.483962E-1,-2.746519E-1,-2.706956E-1,1.1272203E-1,2.470501E-1,-1.2478845E-1,-3.490017E-1,4.9399458E-2,1.9074208E0,-1.2225698E0,2.2240942E0,-1.7218332E0,2.2542049E-1,-7.0117384E-2,3.9989767E0,5.4439774E0,-4.860021E-2,-2.2825158E0,1.17056355E-1,-3.008301E-1,2.9140532E-1,-5.4600056E-2,3.362631E-1,5.8330577E-2,-2.707572E-1,4.7936745E-2,-7.557531E-2,-3.402186E-1],"split_indices":[16,6,13,13,4,9,13,26,5,26,10,0,0,9,0,0,25,0,27,0,0,0,0,17,14,7,0,0,0,16,16,0,8,0,0,0,0,0,0,0,0,0,0],"split_type":[0,0,0,0,0,0,0,0,0,0,0,0,0,0,0,0,0,0,0,0,0,0,0,0,0,0,0,0,0,0,0,0,0,0,0,0,0,0,0,0,0,0,0],"sum_hessian":[2.7045838E4,5.37835E1,2.6992055E4,4.3416805E1,1.0366696E1,4.517314E0,2.6987537E4,3.931442E1,4.102386E0,4.4298882E0,5.936808E0,3.481169E0,1.0361452E0,4.0147335E1,2.694739E4,2.0147694E1,1.9166725E1,1.8905852E0,2.2118008E0,2.406436E0,2.0234523E0,4.806665E0,1.1301432E0,8.093894E0,3.205344E1,4.8005366E0,1.4366188E1,1.1782551E0,1.0335457E0,4.5584526E0,3.5354414E0,1.0751798E0,3.097826E1,1.1362286E0,3.664308E0,1.2005697E1,2.360491E0,3.5558867E0,1.0025656E0,1.9338565E0,1.6015849E0,1.2171507E0,2.9761108E1],"tree_param":{"num_deleted":"0","num_feature":"29","num_nodes":"43","size_leaf_vector":"0"}},{"base_weights":[-1.1056192E0,4.1864535E-1,-1.10899E0,6.232251E-1,-3.516986E-1,5.177411E-1,-1.1093189E0,9.634007E-1,2.9166797E-1,-6.566367E-1,6.105102E-1,8.74943E-1,-4.1195256E-1,-7.204696E-1,-1.1098958E0,1.0675938E0,-3.0880263E-2,-3.5276768E-1,6.426967E-1,1.2212977E-1,-1.0200211E0,3.0541736E-1,-1.0145125E0,-5.0169814E-1,-1.1099439E0,-7.533295E-1,7.742279E-1,8.6903447E-1,-7.395923E-1,5.853403E-1,-4.2830005E-1,-2.9084006E-1,-1.1392119E0,1.0045797E0,-3.1211048E-1,-1.11559026E-1,-1.0466926E0,-6.597301E-1,-5.704125E-2,-8.967694E-1,-9.407397E-4,1.0407269E0,3.881924E-1,3.3375144E-1,-7.582726E-1,-1.9834968E-1,-1.0797273E0],"categories":[],"categories_nodes":[],"categories_segments":[],"categories_sizes":[],"default_left":[1,1,1,1,1,1,1,1,1,1,0,0,0,1,1,0,0,1,1,1,1,1,1,1,0,1,0,1,0,0,0,0,0,0,1,0,1,0,0,0,0,0,0,0,0,0,0],"id":5,"left_children":[1,3,5,7,9,11,13,15,17,19,-1,-1,-1,21,23,-1,-1,25,27,29,31,33,35,37,-1,39,-1,41,-1,-1,-1,-1,-1,-1,43,-1,45,-1,-1,-1,-1,-1,-1,-1,-1,-1,-1],"loss_changes":[1.0713281E2,7.552993E0,1.165625E1,3.9069195E0,3.453651E0,1.9774759E0,3.8457031E0,1.8866386E0,4.8048425E0,2.4966972E0,0E0,0E0,0E0,1.0425768E1,4.8828125E-2,0E0,0E0,4.0963187E0,4.8525715E0,1.1583681E0,1.7470074E-1,3.870833E0,6.4730644E-1,2.053445E-1,0E0,6.734855E-1,0E0,5.885229E-1,0E0,0E0,0E0,0E0,0E0,0E0,1.7336284E0,0E0,4.940586E-1,0E0,0E0,0E0,0E0,0E0,0E0,0E0,0E0,0E0,0E0],"parents":[2147483647,0,0,1,1,2,2,3,3,4,4,5,5,6,6,7,7,8,8,9,9,13,13,14,14,17,17,18,18,19,19,20,20,21,21,22,22,23,23,25,25,27,27,34,34,36,36],"right_children":[2,4,6,8,10,12,14,16,18,20,-1,-1,-1,22,24,-1,-1,26,28,30,32,34,36,38,-1,40,-1,42,-1,-1,-1,-1,-1,-1,44,-1,46,-1,-1,-1,-1,-1,-1,-1,-1,-1,-1],"split_conditions":[-2.7690573E0,-1.6214948E0,-7.7548723E0,2.5936246E-1,7.580452E-1,2.1538353E0,-4.2095885E0,-2.4033692E0,-2.2492188E-1,-1.6413598E0,1.8315306E-1,2.624829E-1,-1.2358577E-1,-1.8612376E0,-1.5562995E1,3.2027817E-1,-9.264079E-3,1.739054E-1,-4.394246E0,5.4607975E-1,-4.3548587E-1,1.2662661E0,-2.7435204E-1,-7.0700836E0,-3.3298317E-1,-2.4937887E0,2.3226838E-1,-1.7218332E0,-2.2187771E-1,1.7560211E-1,-1.2849002E-1,-8.725202E-2,-3.417636E-1,3.013739E-1,-6.563817E-1,-3.346771E-2,-3.0999768E0,-1.9791903E-1,-1.7112376E-2,-2.6903084E-1,-2.822219E-4,3.1221807E-1,1.1645772E-1,1.0012544E-1,-2.2748178E-1,-5.9504908E-2,-3.239182E-1],"split_indices":[16,6,13,27,20,4,13,9,25,17,0,0,0,9,22,0,0,23,13,26,18,4,10,0,0,5,0,0,0,0,0,0,0,0,12,0,11,0,0,0,0,0,0,0,0,0,0],"split_type":[0,0,0,0,0,0,0,0,0,0,0,0,0,0,0,0,0,0,0,0,0,0,0,0,0,0,0,0,0,0,0,0,0,0,0,0,0,0,0,0,0,0,0,0,0,0,0],"sum_hessian":[2.0759674E4,4.5535248E1,2.0714139E4,3.613095E1,9.404297E0,3.8693092E0,2.071027E4,1.6893076E1,1.9237877E1,7.3823085E0,2.0219884E0,2.8378549E0,1.0314543E0,3.2534744E1,2.0677734E4,1.5223984E1,1.6690917E0,6.782069E0,1.2455807E1,2.5599682E0,4.82234E0,7.239201E0,2.5295542E1,2.4577546E0,2.0675277E4,5.248266E0,1.5338027E0,1.1022308E1,1.4334991E0,1.3556803E0,1.2042878E0,1.1608232E0,3.661517E0,3.101228E0,4.1379733E0,1.0241883E0,2.4271355E1,1.4564472E0,1.0013075E0,4.2467446E0,1.0015215E0,7.264143E0,3.7581651E0,1.7935662E0,2.3444068E0,1.1722327E0,2.3099121E1],"tree_param":{"num_deleted":"0","num_feature":"29","num_nodes":"47","size_leaf_vector":"0"}},{"base_weights":[-1.072484E0,3.644667E-1,-1.0760685E0,5.7377034E-1,-3.3850005E-1,-3.1843525E-1,-1.0768611E0,6.7696357E-1,-7.492673E-1,1.9759032E-1,-7.4285555E-1,8.5524046E-1,-7.535139E-1,-1.8314962E-1,-1.0769103E0,1.0324526E0,3.3455607E-1,7.948439E-1,-3.6973315E-1,-9.663252E-1,7.40009E-2,-3.4162767E-2,-9.7957844E-1,-4.4971198E-1,-1.0769706E0,8.747713E-1,-1.6432463E-1,1.8015149E-1,-6.999477E-1,-6.990309E-1,6.594204E-1,-1.042115E0,-2.5960273E-1,-5.3040847E-2,-6.048846E-1,-1.0770336E0,-4.724617E-1,2.1661967E-1,9.8283553E-1,-6.933874E-1,8.464439E-1,-7.625146E-1,-1.0772166E0,-6.2727493E-1,-5.947527E-2],"categories":[],"categories_nodes":[],"categories_segments":[],"categories_sizes":[],"default_left":[1,1,1,1,1,1,1,1,0,1,1,0,1,0,1,0,1,0,1,0,0,1,1,1,1,1,1,0,0,0,0,0,0,0,0,1,1,0,0,0,0,0,0,0,0],"id":6,"left_children":[1,3,5,7,9,11,13,15,-1,17,19,-1,21,-1,23,-1,25,-1,27,-1,-1,29,31,33,35,37,39,-1,-1,-1,-1,-1,-1,-1,-1,41,43,-1,-1,-1,-1,-1,-1,-1,-1],"loss_changes":[8.166992E1,6.0813775E0,9.111328E0,4.7673664E0,2.2730982E0,9.770948E0,4.9414062E-1,3.2418547E0,0E0,1.9905701E0,1.1305547E0,0E0,2.1734009E0,0E0,1.09375E-1,0E0,4.588138E0,0E0,7.1633434E-1,0E0,0E0,2.4351552E0,1.9275093E-1,1.665656E-1,8.984375E-2,3.6146164E-1,5.6218896E0,0E0,0E0,0E0,0E0,0E0,0E0,0E0,0E0,8.3984375E-2,1.81387E-1,0E0,0E0,0E0,0E0,0E0,0E0,0E0,0E0],"parents":[2147483647,0,0,1,1,2,2,3,3,4,4,5,5,6,6,7,7,9,9,10,10,12,12,14,14,16,16,18,18,21,21,22,22,23,23,24,24,25,25,26,26,35,35,36,36],"right_children":[2,4,6,8,10,12,14,16,-1,18,20,-1,22,-1,24,-1,26,-1,28,-1,-1,30,32,34,36,38,40,-1,-1,-1,-1,-1,-1,-1,-1,42,44,-1,-1,-1,-1,-1,-1,-1,-1],"split_conditions":[-2.7690573E0,-3.913834E0,-4.9701943E0,2.3321066E0,1.1272203E-1,-2.5430176E0,-4.599948E0,5.3801775E-1,-2.2478019E-1,-4.074566E0,1.7697713E-1,2.5657216E-1,2.7827302E-2,-5.4944888E-2,-1.5562995E1,3.0973577E-1,-3.3473547E0,2.3845318E-1,-3.9361976E-2,-2.898976E-1,2.2200271E-2,-4.336622E0,2.0438118E-1,1.4203593E0,2.7439551E0,-2.2492188E-1,9.2405E1,5.404545E-2,-2.0998432E-1,-2.0970927E-1,1.9782612E-1,-3.126345E-1,-7.788082E-2,-1.5912255E-2,-1.8146539E-1,-4.2496886E0,-4.764098E-1,6.49859E-2,2.9485068E-1,-2.0801623E-1,2.539332E-1,-2.2875439E-1,-3.23165E-1,-1.8818249E-1,-1.7842581E-2],"split_indices":[16,13,13,6,27,9,11,19,0,11,25,0,19,0,22,0,8,0,26,0,0,2,18,11,25,25,28,0,0,0,0,0,0,0,0,13,0,0,0,0,0,0,0,0,0],"split_type":[0,0,0,0,0,0,0,0,0,0,0,0,0,0,0,0,0,0,0,0,0,0,0,0,0,0,0,0,0,0,0,0,0,0,0,0,0,0,0,0,0,0,0,0,0],"sum_hessian":[1.5779041E4,3.901234E1,1.5740029E4,3.0203299E1,8.809044E0,1.6872652E1,1.5723156E4,2.847097E1,1.732329E0,4.007408E0,4.8016357E0,4.301942E0,1.2570709E1,1.068763E0,1.5722088E4,1.2979901E1,1.5491069E1,1.7568406E0,2.2505674E0,3.6265342E0,1.1751015E0,3.281117E0,9.289593E0,2.2273128E0,1.571986E4,7.075674E0,8.415395E0,1.0149233E0,1.2356441E0,1.6712264E0,1.6098906E0,8.135516E0,1.1540759E0,1.003602E0,1.2237108E0,1.5717439E4,2.420533E0,1.4216763E0,5.653998E0,5.7301064E0,2.6852882E0,1.1564358E1,1.5705875E4,1.3831617E0,1.0373713E0],"tree_param":{"num_deleted":"0","num_feature":"29","num_nodes":"45","size_leaf_vector":"0"}},{"base_weights":[-1.0484967E0,3.0926815E-1,-1.0524224E0,4.4321585E-1,-7.6237744E-1,-4.6657482E-1,-1.053592E0,6.1040145E-1,-1.515951E-1,4.4114417E-1,-9.123948E-1,-4.0404713E-1,-1.0536698E0,9.606727E-1,2.9719868E-1,3.3223808E-1,-5.4442585E-1,7.491825E-1,-7.423608E-1,-1.4341044E-1,-1.0095018E0,-5.588186E-1,-4.5157984E-2,-1.0537506E0,-4.2449462E-1,9.061937E-1,-6.805158E-3,7.195151E-1,-1.6742903E-1,1.3542825E-1,-8.6532605E-1,1.4599673E-1,1.0131716E0,3.814732E-1,-5.746743E-1,-5.832003E-1,-3.9478067E-2,-4.3199152E-1,8.3521676E-1,5.675175E-1,-3.7899E-1],"categories":[],"categories_nodes":[],"categories_segments":[],"categories_sizes":[],"default_left":[1,1,1,1,0,1,1,1,1,1,1,1,1,0,1,1,1,1,0,1,0,0,0,0,1,0,1,0,0,0,0,1,0,0,0,0,0,0,0,0,0],"id":7,"left_children":[1,3,5,7,-1,9,11,13,15,17,19,21,23,-1,25,27,29,31,-1,33,-1,-1,-1,-1,35,-1,37,-1,-1,-1,-1,39,-1,-1,-1,-1,-1,-1,-1,-1,-1],"loss_changes":[6.384375E1,5.380316E0,7.649414E0,3.2605548E0,0E0,1.0709187E1,1.7382812E-1,2.4644518E0,1.661618E0,3.8601518E0,1.1549959E0,1.4376536E-1,1.5625E-1,0E0,2.724257E0,9.161829E-1,1.137919E0,1.0764112E0,0E0,9.24833E-1,0E0,0E0,0E0,0E0,1.723625E-1,0E0,4.222198E0,0E0,0E0,0E0,0E0,9.9160737E-1,0E0,0E0,0E0,0E0,0E0,0E0,0E0,0E0,0E0],"parents":[2147483647,0,0,1,1,2,2,3,3,5,5,6,6,7,7,8,8,9,9,10,10,11,11,12,12,14,14,15,15,16,16,17,17,19,19,24,24,26,26,31,31],"right_children":[2,4,6,8,-1,10,12,14,16,18,20,22,24,-1,26,28,30,32,-1,34,-1,-1,-1,-1,36,-1,38,-1,-1,-1,-1,40,-1,-1,-1,-1,-1,-1,-1,-1,-1],"split_conditions":[-2.6770945E0,-2.18088E0,-4.2095885E0,-3.913834E0,-2.2871324E-1,-1.8612376E0,-1.5562995E1,2.7636078E-1,1.1272203E-1,3.3182342E0,-2.679534E-1,1.8891965E0,2.7439551E0,2.882018E-1,6.2629026E-1,-4.074566E0,1.2635045E-1,2.0997448E0,-2.2270824E-1,1.9416509E0,-3.0285054E-1,-1.6764557E-1,-1.3547395E-2,-3.161252E-1,-1.08305536E-1,2.7185813E-1,9.2405E1,2.1585454E-1,-5.022871E-2,4.0628478E-2,-2.5959784E-1,2.452907E0,3.0395147E-1,1.1444197E-1,-1.7240229E-1,-1.7496009E-1,-1.1843421E-2,-1.2959746E-1,2.5056505E-1,1.7025526E-1,-1.13697E-1],"split_indices":[16,11,13,13,0,9,22,27,27,17,19,8,25,0,18,11,24,10,0,9,0,0,0,0,1,0,28,0,0,0,0,4,0,0,0,0,0,0,0,0,0],"split_type":[0,0,0,0,0,0,0,0,0,0,0,0,0,0,0,0,0,0,0,0,0,0,0,0,0,0,0,0,0,0,0,0,0,0,0,0,0,0,0,0,0],"sum_hessian":[1.1915556E4,3.4127922E1,1.1881428E4,3.0857393E1,3.2705276E0,2.4468784E1,1.1856959E4,2.4066677E1,6.790716E0,8.062825E0,1.6405958E1,2.042543E0,1.1854916E4,1.0385154E1,1.3681523E1,3.112019E0,3.678697E0,6.6888547E0,1.373971E0,2.1171572E0,1.42888E1,1.037878E0,1.0046649E0,1.1852719E4,2.1975834E0,3.8960025E0,9.785521E0,1.5053097E0,1.6067094E0,1.364937E0,2.3137603E0,2.509033E0,4.1798215E0,1.0070037E0,1.1101536E0,1.1916422E0,1.0059413E0,6.825755E0,2.9597654E0,1.3467175E0,1.1623155E0],"tree_param":{"num_deleted":"0","num_feature":"29","num_nodes":"41","size_leaf_vector":"0"}},{"base_weights":[-1.0304437E0,2.7459425E-1,-1.0348164E0,-3.7716052E-1,4.771015E-1,-4.276168E-1,-1.0361297E0,4.568901E-1,-5.7741666E-1,9.224915E-2,7.8745925E-1,3.9342466E-1,-8.632896E-1,-1.0363482E0,-5.6889534E-1,-8.4896684E-1,-1.5060234E-1,-3.4436226E-1,7.6866627E-1,9.507813E-1,-2.3549059E-1,9.154929E-1,-1.7254707E-1,2.8066453E-1,-9.769028E-1,-1.0364538E0,-3.702892E-1,4.7494537E-1,-8.512711E-1,-2.5705096E-1,-1.0297512E0,4.4237578E-1,-5.4929775E-1,-9.0743566E-1,4.7011214E-1,2.401398E-1,9.9573684E-1,-6.986286E-1,6.748244E-1,-4.455468E-1,-1.0365626E0,-1.0679567E0,-1.5884207E-1,7.8823483E-1,-2.056946E-1,-6.1051977E-1,-3.118473E-2],"categories":[],"categories_nodes":[],"categories_segments":[],"categories_sizes":[],"default_left":[1,1,1,1,1,1,1,0,1,1,1,1,1,1,1,1,1,1,0,1,0,0,1,0,0,1,0,0,0,0,0,0,0,1,1,0,0,0,0,1,0,0,0,0,0,0,0],"id":8,"left_children":[1,3,5,7,9,11,13,-1,15,17,19,21,23,25,27,29,31,33,-1,35,-1,-1,37,-1,-1,39,-1,-1,-1,-1,-1,-1,-1,41,43,-1,-1,-1,-1,45,-1,-1,-1,-1,-1,-1,-1],"loss_changes":[5.141211E1,4.233255E0,6.678711E0,1.57304E0,2.7786536E0,7.8426523E0,3.203125E-1,0E0,6.559429E-1,3.7465453E0,2.409546E0,2.509543E0,2.0959187E0,2.421875E-1,2.285441E0,1.545012E-1,1.1520727E0,4.029187E0,0E0,1.2762642E-1,0E0,0E0,2.548884E0,0E0,0E0,1.1035156E-1,0E0,0E0,0E0,0E0,0E0,0E0,0E0,4.294839E-1,9.940721E-1,0E0,0E0,0E0,0E0,2.1277964E-1,0E0,0E0,0E0,0E0,0E0,0E0,0E0],"parents":[2147483647,0,0,1,1,2,2,3,3,4,4,5,5,6,6,8,8,9,9,10,10,11,11,12,12,13,13,14,14,15,15,16,16,17,17,19,19,22,22,25,25,33,33,34,34,39,39],"right_children":[2,4,6,8,10,12,14,-1,16,18,20,22,24,26,28,30,32,34,-1,36,-1,-1,38,-1,-1,40,-1,-1,-1,-1,-1,-1,-1,42,44,-1,-1,-1,-1,46,-1,-1,-1,-1,-1,-1,-1],"split_conditions":[-2.6770945E0,1.7042084E0,-4.2095885E0,-3.5610757E0,-1.9814534E-1,7.622453E-1,9.880173E0,1.3706703E-1,2.245E1,9.167E1,-1.5826557E0,1.7912071E0,-2.6443253E0,2.7439551E0,2.9053968E-1,5.644151E-1,-8.5914636E-1,-1.8920107E-1,2.305999E-1,-1.4326801E1,-7.064718E-2,2.746479E-1,-1.853092E0,8.419936E-2,-2.9307085E-1,-2.0394614E0,-1.1108676E-1,1.4248362E-1,-2.5538135E-1,-7.711529E-2,-3.0892536E-1,1.3271274E-1,-1.6478933E-1,-2.6246295E0,-2.1453583E0,7.204194E-2,2.9872108E-1,-2.0958859E-1,2.0244734E-1,-3.2806013E0,-3.109688E-1,-3.20387E-1,-4.7652625E-2,2.3647046E-1,-6.1708383E-2,-1.8315594E-1,-9.355419E-3],"split_indices":[16,3,13,15,25,6,4,0,28,28,9,16,18,25,11,18,6,21,0,0,0,0,2,0,0,16,0,0,0,0,0,0,0,8,6,0,0,0,0,0,0,0,0,0,0,0,0],"split_type":[0,0,0,0,0,0,0,0,0,0,0,0,0,0,0,0,0,0,0,0,0,0,0,0,0,0,0,0,0,0,0,0,0,0,0,0,0,0,0,0,0,0,0,0,0,0,0],"sum_hessian":[8.958545E3,2.9710371E1,8.928835E3,6.8385496E0,2.2871822E1,1.9975395E1,8.908859E3,1.0759163E0,5.7626333E0,1.0789621E1,1.2082201E1,6.95861E0,1.3016786E1,8.903478E3,5.382018E0,2.917419E0,2.8452146E0,6.855475E0,3.934146E0,1.04796E1,1.6026015E0,3.298459E0,3.6601508E0,1.0431466E0,1.19736395E1,8.90151E3,1.9677854E0,1.0007279E0,4.38129E0,1.2492025E0,1.6682165E0,1.0998515E0,1.745363E0,3.985813E0,2.8696623E0,1.0008137E0,9.4787855E0,2.3664808E0,1.2936699E0,2.3912144E0,8.899118E3,2.9307535E0,1.0550596E0,1.8380672E0,1.031595E0,1.3716948E0,1.0195197E0],"tree_param":{"num_deleted":"0","num_feature":"29","num_nodes":"47","size_leaf_vector":"0"}},{"base_weights":[-1.0162027E0,2.50036E-1,-1.0209829E0,4.6918395E-1,-2.660711E-1,-3.712714E-1,-1.0225657E0,8.788284E-1,1.4873572E-1,-6.679045E-1,5.388625E-2,3.9882624E-1,-8.1157106E-1,-1.0232887E0,-7.192301E-1,7.0856684E-1,-1.5135552E-1,-1.4705935E-1,-8.487403E-1,6.300206E-1,-3.603076E-1,6.5954894E-1,-5.926955E-1,-7.4724674E-2,-9.412442E-1,-3.6147166E-2,-1.0234325E0,4.7951698E-1,-8.1157285E-1,-8.169257E-1,5.1804584E-1,1.205987E-1,-6.5109104E-1,8.1940717E-1,4.890041E-2,-1.023573E0,-3.199002E-1,1.3285159E-1,-9.673509E-1,-2.7486995E-1,8.314649E-1,-6.9922817E-1,-1.0240097E0,9.590224E-1,-6.084038E-1],"categories":[],"categories_nodes":[],"categories_segments":[],"categories_sizes":[],"default_left":[1,1,1,1,1,1,1,0,1,1,1,1,1,1,1,0,1,0,0,0,1,1,0,0,0,0,1,0,1,0,1,0,0,0,0,1,0,1,0,0,0,0,0,0,0],"id":9,"left_children":[1,3,5,7,9,11,13,-1,15,17,19,21,23,25,27,-1,29,-1,-1,-1,31,33,-1,-1,-1,-1,35,-1,37,-1,39,-1,-1,-1,-1,41,-1,43,-1,-1,-1,-1,-1,-1,-1],"loss_changes":[4.0913574E1,3.0730407E0,6.501953E0,2.3186479E0,1.1169245E0,6.3705225E0,7.2802734E-1,0E0,2.0683146E0,2.3323894E-1,1.5647398E0,2.2412567E0,1.0452747E0,9.082031E-1,2.5187578E0,0E0,4.176116E0,0E0,0E0,0E0,6.235394E-1,5.5937004E-1,0E0,0E0,0E0,0E0,3.310547E-1,0E0,2.8110685E0,0E0,1.4242887E0,0E0,0E0,0E0,0E0,2.2607422E-1,0E0,2.7029805E0,0E0,0E0,0E0,0E0,0E0,0E0,0E0],"parents":[2147483647,0,0,1,1,2,2,3,3,4,4,5,5,6,6,8,8,9,9,10,10,11,11,12,12,13,13,14,14,16,16,20,20,21,21,26,26,28,28,30,30,35,35,37,37],"right_children":[2,4,6,8,10,12,14,-1,16,18,20,22,24,26,28,-1,30,-1,-1,-1,32,34,-1,-1,-1,-1,36,-1,38,-1,40,-1,-1,-1,-1,42,-1,44,-1,-1,-1,-1,-1,-1,-1],"split_conditions":[-2.7690573E0,-1.9915078E0,-4.2095885E0,2.5936246E-1,1.712E1,-1.8612376E0,4.8207355E0,2.6364854E-1,-1.3810809E-1,-8.929301E-2,-2.7977571E0,3.3182342E0,-2.679534E-1,-1.4109494E1,4.8461123E0,2.1257006E-1,9.127082E-2,-4.411781E-2,-2.546221E-1,1.890062E-1,5.122928E-1,2.988874E0,-1.7780864E-1,-2.2417404E-2,-2.8237328E-1,-1.0844151E-2,2.7439551E0,1.438551E-1,-4.813291E-1,-2.4507771E-1,-2.6281193E1,3.6179613E-2,-1.9532733E-1,2.4582216E-1,1.4670123E-2,-3.511582E0,-9.597007E-2,6.9357187E-1,-2.9020527E-1,-8.2460985E-2,2.4943948E-1,-2.0976846E-1,-3.0720294E-1,2.8770673E-1,-1.8252115E-1],"split_indices":[16,6,13,27,28,9,3,0,23,18,15,17,19,22,3,0,23,0,0,0,14,4,0,0,0,0,25,0,15,0,0,0,0,0,0,13,0,2,0,0,0,0,0,0,0],"split_type":[0,0,0,0,0,0,0,0,0,0,0,0,0,0,0,0,0,0,0,0,0,0,0,0,0,0,0,0,0,0,0,0,0,0,0,0,0,0,0,0,0,0,0,0,0],"sum_hessian":[6.716244E3,2.5066359E1,6.6911777E3,1.7658972E1,7.407386E0,1.6833427E1,6.674344E3,6.985971E0,1.0673001E1,2.8015053E0,4.6058807E0,6.157669E0,1.0675759E1,6.656106E3,1.823829E1,3.249594E0,7.423407E0,1.1892979E0,1.6122075E0,1.7084241E0,2.8974564E0,5.1407175E0,1.0169512E0,1.8334924E0,8.842267E0,1.0064954E0,6.6550996E3,1.0045775E0,1.7233713E1,3.611848E0,3.811559E0,1.312337E0,1.5851194E0,3.8032286E0,1.337489E0,6.6533154E3,1.7842453E0,2.4609656E0,1.4772748E1,1.1146393E0,2.6969197E0,1.109742E1,6.642218E3,1.0248884E0,1.4360772E0],"tree_param":{"num_deleted":"0","num_feature":"29","num_nodes":"45","size_leaf_vector":"0"}},{"base_weights":[-1.0042152E0,2.1563464E-1,-1.009569E0,-4.8917964E-1,3.7472162E-1,-4.7918373E-1,-1.0119655E0,-7.2280675E-1,-1.7570387E-1,7.568031E-1,9.523745E-2,9.1533446E-1,-7.9888093E-1,-1.012927E0,-6.426485E-1,-6.0767734E-1,2.872301E-1,8.58955E-1,4.837273E-2,-5.624338E-1,3.9288875E-1,1.3643562E0,-3.3690798E-1,-1.4454502E-1,-9.255829E-1,-4.182991E-2,-1.0131195E0,4.8512796E-1,-7.527148E-1,-7.682767E-1,-1.1745088E-1,6.13936E-1,-4.0915427E-1,1.8385519E0,3.7626863E-1,-4.3072835E-1,3.035482E-1,-1.3278377E-1,-9.674825E-1,-6.489694E-2,-1.0133171E0,7.376583E-2,-9.400528E-1,8.8623345E-1,-8.692338E-2,-7.348086E-2,-5.758437E-1,-1.0135051E0,-2.754432E-1,-6.4117986E-1,9.7697204E-1],"categories":[],"categories_nodes":[],"categories_segments":[],"categories_sizes":[],"default_left":[1,1,1,1,1,1,1,0,1,1,1,1,1,1,1,0,0,0,0,1,1,1,0,1,1,0,1,0,1,0,0,1,0,0,0,1,0,0,0,0,1,1,0,0,0,0,0,0,0,0,0],"id":10,"left_children":[1,3,5,7,9,11,13,-1,15,17,19,21,23,25,27,-1,-1,-1,-1,29,31,33,-1,35,37,-1,39,-1,41,-1,-1,43,-1,-1,-1,45,-1,-1,-1,-1,47,49,-1,-1,-1,-1,-1,-1,-1,-1,-1],"loss_changes":[3.3055664E1,2.7392993E0,5.878418E0,2.1219802E-1,1.9743676E0,1.1617366E1,1.1181641E0,0E0,8.342501E-1,5.339203E-1,2.611549E0,3.282292E0,1.5573273E0,8.857422E-1,2.3109274E0,0E0,0E0,0E0,0E0,2.959515E-1,1.8460554E0,1.1322803E0,0E0,7.0705533E-1,4.3305016E-1,0E0,8.652344E-1,0E0,2.3412304E0,0E0,0E0,1.4992108E0,0E0,0E0,0E0,1.21296346E-1,0E0,0E0,0E0,0E0,4.0966797E-1,2.9760427E0,0E0,0E0,0E0,0E0,0E0,0E0,0E0,0E0,0E0],"parents":[2147483647,0,0,1,1,2,2,3,3,4,4,5,5,6,6,8,8,9,9,10,10,11,11,12,12,13,13,14,14,19,19,20,20,21,21,23,23,24,24,26,26,28,28,31,31,35,35,40,40,41,41],"right_children":[2,4,6,8,10,12,14,-1,16,18,20,22,24,26,28,-1,-1,-1,-1,30,32,34,-1,36,38,-1,40,-1,42,-1,-1,44,-1,-1,-1,46,-1,-1,-1,-1,48,50,-1,-1,-1,-1,-1,-1,-1,-1,-1],"split_conditions":[-2.7690573E0,1.1723983E0,-3.511582E0,6.861187E-1,-6.653945E-2,-2.229636E-2,4.8207355E0,-2.1684204E-1,1.5405E1,1.5820625E0,3.792081E-2,6.587491E-1,-1.8757529E0,-3.4874027E0,-1.9712808E0,-1.823032E-1,8.6169034E-2,2.5768653E-1,1.451182E-2,-6.579399E0,1.8498199E0,1.0211468E0,-1.010724E-1,1.767158E-1,-2.090723E0,-1.2548974E-2,-2.0394614E0,1.4553839E-1,-4.813291E-1,-2.3048301E-1,-3.5235263E-2,-2.025547E0,-1.2274628E-1,5.515656E-1,1.12880595E-1,-4.894E0,9.106446E-2,-3.9835133E-2,-2.9024476E-1,-1.9469082E-2,2.7439551E0,1.7216414E0,-2.8201586E-1,2.6587003E-1,-2.6077015E-2,-2.2044258E-2,-1.7275311E-1,-3.0405155E-1,-8.263296E-2,-1.9235396E-1,2.9309162E-1],"split_indices":[16,3,13,1,23,6,3,0,28,12,23,14,9,24,18,0,0,0,0,9,24,4,0,0,8,0,16,0,15,0,0,6,0,0,0,13,0,0,0,0,25,9,0,0,0,0,0,0,0,0,0],"split_type":[0,0,0,0,0,0,0,0,0,0,0,0,0,0,0,0,0,0,0,0,0,0,0,0,0,0,0,0,0,0,0,0,0,0,0,0,0,0,0,0,0,0,0,0,0,0,0,0,0,0,0],"sum_hessian":[5.0271226E3,2.1795565E1,5.0053267E3,3.6315465E0,1.8164019E1,2.3418009E1,4.9819087E3,1.332603E0,2.2989435E0,6.9520483E0,1.1211969E1,4.0199347E0,1.9398073E1,4.9672334E3,1.46752E1,1.027498E0,1.2714454E0,5.8902316E0,1.0618167E0,3.216165E0,7.9958043E0,2.8930366E0,1.1268983E0,3.4940963E0,1.5903977E1,1.0269377E0,4.9662065E3,1.0018904E0,1.367331E1,1.7022138E0,1.5139513E0,6.452105E0,1.5436991E0,1.3732697E0,1.5197669E0,2.1559258E0,1.3381705E0,1.0076138E0,1.4896364E1,1.1038604E0,4.9651025E3,2.6386406E0,1.103467E1,4.456265E0,1.9958404E0,1.0579091E0,1.0980166E0,4.963465E3,1.6377909E0,1.6347432E0,1.0038973E0],"tree_param":{"num_deleted":"0","num_feature":"29","num_nodes":"51","size_leaf_vector":"0"}},{"base_weights":[-9.9329275E-1,5.110728E-2,-1.0002435E0,4.2128265E-1,-7.7795714E-1,-2.6135504E-1,-1.0017201E0,-2.862386E-1,5.907288E-1,-8.968242E-1,-1.06166795E-1,4.4922467E-2,-6.940399E-1,-1.0029896E0,-5.7180494E-1,2.989642E-1,-6.723879E-1,6.784579E-1,-1.4901629E-1,7.458147E-1,-2.7936676E-1,-8.7935555E-1,-1.0072141E0,-6.9727707E-1,4.8130825E-1,9.518956E-1,2.0533018E-1,-5.043934E-1,1.469817E-1,-9.4351965E-1,7.812296E-2,-3.3801135E-2,-1.0074786E0,8.296623E-2,-9.1506153E-1,6.784943E-1,-1.2749615E-1,-6.489391E-1,-8.303852E-2,-9.5935243E-1,4.8186016E-1,-7.0609164E-1,1.4452827E0,-1.0077403E0,-2.1099623E-1,9.4083893E-1,-6.2909305E-1],"categories":[],"categories_nodes":[],"categories_segments":[],"categories_sizes":[],"default_left":[1,1,1,1,1,1,1,1,1,0,0,1,0,1,1,0,0,1,0,0,1,1,1,1,0,0,1,1,0,1,1,0,1,1,0,0,0,0,0,0,0,0,0,0,0,0,0],"id":11,"left_children":[1,3,5,7,9,11,13,15,17,-1,-1,19,-1,21,23,-1,-1,25,-1,-1,27,29,31,33,-1,-1,35,37,-1,39,41,-1,43,45,-1,-1,-1,-1,-1,-1,-1,-1,-1,-1,-1,-1,-1],"loss_changes":[2.735498E1,8.251177E0,3.8144531E0,2.3866515E0,5.692158E-1,1.1979706E0,1.4616699E0,1.1608717E0,1.0907536E0,0E0,0E0,1.593594E0,0E0,1.0554199E0,2.093614E0,0E0,0E0,1.5915318E0,0E0,0E0,5.436835E-1,8.101021E0,8.8916016E-1,2.1653967E0,0E0,0E0,1.0840163E0,1.5496051E-1,0E0,3.2275467E0,1.0808914E1,0E0,5.3466797E-1,2.791046E0,0E0,0E0,0E0,0E0,0E0,0E0,0E0,0E0,0E0,0E0,0E0,0E0,0E0],"parents":[2147483647,0,0,1,1,2,2,3,3,4,4,5,5,6,6,7,7,8,8,11,11,13,13,14,14,17,17,20,20,21,21,22,22,23,23,26,26,27,27,29,29,30,30,32,32,33,33],"right_children":[2,4,6,8,10,12,14,16,18,-1,-1,20,-1,22,24,-1,-1,26,-1,-1,28,30,32,34,-1,-1,36,38,-1,40,42,-1,44,46,-1,-1,-1,-1,-1,-1,-1,-1,-1,-1,-1,-1,-1],"split_conditions":[-4.2496886E0,1.1002897E0,-2.0394614E0,1.7236974E0,3.7387425E-1,-1.8200924E-1,4.8207355E0,3.4305543E-1,1.3393557E0,-2.6904726E-1,-3.185004E-2,-2.6210755E-2,-2.0821197E-1,-1.6334205E0,1.3502504E-1,8.968926E-2,-2.0171638E-1,1.0966927E0,-4.4704888E-2,2.237444E-1,-1.7360055E-1,1.9706564E0,-1.3683591E1,-4.813291E-1,1.4439248E-1,2.8556868E-1,-3.7182302E0,7.4714243E-1,4.409451E-2,2.4638605E0,1.1014502E0,-1.0140341E-2,2.7439551E0,-4.8007393E-1,-2.7451846E-1,2.035483E-1,-3.824885E-2,-1.9468173E-1,-2.4911556E-2,-2.8780574E-1,1.4455806E-1,-2.118275E-1,4.3358484E-1,-3.023221E-1,-6.329887E-2,2.822517E-1,-1.8872793E-1],"split_indices":[13,6,16,3,25,8,3,19,15,0,0,7,0,13,0,0,0,26,0,0,14,3,22,15,0,0,8,20,0,20,17,0,25,24,0,0,0,0,0,0,0,0,0,0,0,0,0],"split_type":[0,0,0,0,0,0,0,0,0,0,0,0,0,0,0,0,0,0,0,0,0,0,0,0,0,0,0,0,0,0,0,0,0,0,0,0,0,0,0,0,0,0,0,0,0,0,0],"sum_hessian":[3.7601787E3,2.4817713E1,3.735361E3,1.7497139E1,7.3205743E0,7.804545E0,3.7275564E3,3.2475898E0,1.4249549E1,5.935387E0,1.3851871E0,5.0945363E0,2.7100086E0,3.715252E3,1.2304502E1,1.3807964E0,1.8667934E0,1.2812872E1,1.4366763E0,1.2003514E0,3.894185E0,1.2966185E2,3.58559E3,1.1296483E1,1.0080189E0,7.478725E0,5.3341475E0,2.4290688E0,1.4651161E0,1.2153212E2,8.129733E0,1.0088878E0,3.5845813E3,2.6001444E0,8.696339E0,1.7738136E0,3.5603337E0,1.4064589E0,1.0226101E0,1.20520355E2,1.0117621E0,5.4735765E0,2.6561568E0,3.5831384E3,1.442807E0,1.0335972E0,1.5665472E0],"tree_param":{"num_deleted":"0","num_feature":"29","num_nodes":"47","size_leaf_vector":"0"}},{"base_weights":[-9.824198E-1,-8.101528E-2,-9.919439E-1,5.2096367E-1,-7.094798E-1,-2.4457246E-1,-9.93207E-1,9.810921E-1,6.600285E-2,-8.475328E-2,-8.796565E-1,-4.775236E-1,4.4403878E-1,-1.0000981E0,-8.495496E-1,2.473007E-2,1.1724927E0,-2.0621906E-1,7.165902E-1,-4.886094E-1,1.895819E-1,-1.5856507E-1,-9.310604E-1,-1.5770106E-1,-6.909253E-1,-3.3748323E-1,-1.0008278E0,-9.0334445E-1,1.22286886E-1,2.0492325E0,6.4575946E-1,6.1367977E-1,-5.076086E-1,-2.5304136E-1,5.5009866E-1,-3.7762973E-1,1.1099067E-1,4.8045027E-1,-7.197349E-1,-1.0012006E0,-1.07850835E-1,2.684879E-1,-9.2539114E-1,-7.1021074E-1,2.3753028E0,6.494805E-2,7.629734E-1,7.111475E-2,-7.6762104E-1,9.8860466E-1,-5.3770083E-1,-9.469751E-1,-2.2746217E-1,-8.358443E-1,-7.946932E-3],"categories":[],"categories_nodes":[],"categories_segments":[],"categories_sizes":[],"default_left":[1,1,1,1,1,1,1,1,1,1,1,1,0,1,1,0,1,1,0,0,1,0,0,1,0,1,1,1,1,0,1,0,1,0,0,0,0,0,0,0,0,1,1,1,0,0,0,0,0,0,0,0,0,0,0],"id":12,"left_children":[1,3,5,7,9,11,13,15,17,19,21,23,-1,25,27,-1,29,31,-1,-1,33,-1,-1,35,-1,37,39,41,43,-1,45,-1,47,-1,-1,-1,-1,-1,-1,-1,-1,49,51,53,-1,-1,-1,-1,-1,-1,-1,-1,-1,-1,-1],"loss_changes":[2.4083496E1,1.1914917E1,2.3859863E0,3.3189392E0,1.5577374E0,1.178633E0,1.9025879E0,1.4288073E0,1.7770555E0,5.79404E-1,2.9568386E-1,2.312249E-1,0E0,9.421387E-1,7.110672E0,0E0,1.7312746E0,2.1060865E0,0E0,0E0,6.7165935E-1,0E0,0E0,2.363609E-1,0E0,1.7279462E0,7.722168E-1,3.5293732E0,1.6511621E1,0E0,3.311515E-1,0E0,9.360088E-1,0E0,0E0,0E0,0E0,0E0,0E0,0E0,0E0,2.3430388E0,1.6657257E0,5.704677E-1,0E0,0E0,0E0,0E0,0E0,0E0,0E0,0E0,0E0,0E0,0E0],"parents":[2147483647,0,0,1,1,2,2,3,3,4,4,5,5,6,6,7,7,8,8,9,9,10,10,11,11,13,13,14,14,16,16,17,17,20,20,23,23,25,25,26,26,27,27,28,28,30,30,32,32,41,41,42,42,43,43],"right_children":[2,4,6,8,10,12,14,16,18,20,22,24,-1,26,28,-1,30,32,-1,-1,34,-1,-1,36,-1,38,40,42,44,-1,46,-1,48,-1,-1,-1,-1,-1,-1,-1,-1,50,52,54,-1,-1,-1,-1,-1,-1,-1,-1,-1,-1,-1],"split_conditions":[-3.5013747E0,-2.229636E-2,-2.0394614E0,5.3801775E-1,-1.8757529E0,9.3047035E-1,2.620275E0,1.0651805E0,9.2405E1,-3.4045157E-1,-2.040482E0,-2.5503273E0,1.3321164E-1,-6.782819E0,1.5906105E0,7.4190213E-3,2.164386E0,-3.8528845E0,2.1497707E-1,-1.4658283E-1,3.8010855E0,-4.7569524E-2,-2.7931812E-1,2.793625E-1,-2.072776E-1,1.2934998E0,9.992542E0,-2.3063965E0,8.333782E-1,6.1476976E-1,2.5951977E0,1.8410394E-1,-7.706112E-2,-7.591241E-2,1.650296E-1,-1.13288924E-1,3.3297203E-2,1.4413509E-1,-2.1592048E-1,-3.0036017E-1,-3.2355253E-2,1.0412827E0,2.6883762E0,3.1218588E-1,7.125909E-1,1.9484416E-2,2.2889204E-1,2.1334425E-2,-2.3028632E-1,2.9658142E-1,-1.6131026E-1,-2.8409255E-1,-6.823865E-2,-2.5075328E-1,-2.3840796E-3],"split_indices":[13,6,16,19,9,5,3,1,28,14,8,11,0,6,16,0,10,8,0,0,16,0,0,21,0,11,20,13,0,0,10,0,23,0,0,0,0,0,0,0,0,1,9,22,0,0,0,0,0,0,0,0,0,0,0],"split_type":[0,0,0,0,0,0,0,0,0,0,0,0,0,0,0,0,0,0,0,0,0,0,0,0,0,0,0,0,0,0,0,0,0,0,0,0,0,0,0,0,0,0,0,0,0,0,0,0,0,0,0,0,0,0,0],"sum_hessian":[2.813648E3,2.9517101E1,2.7841309E3,1.5163599E1,1.4353502E1,5.025667E0,2.779105E3,6.9640336E0,8.199565E0,3.3935726E0,1.0959929E1,3.984341E0,1.0413264E0,2.6462063E3,1.328988E2,1.3496268E0,5.614407E0,6.2622924E0,1.9372724E0,1.0567845E0,2.336788E0,1.0011088E0,9.958821E0,2.2905333E0,1.6938075E0,3.4206645E0,2.6427856E3,1.2599497E2,6.9038258E0,1.0223176E0,4.592089E0,1.4047228E0,4.8575697E0,1.182766E0,1.154022E0,1.0366112E0,1.2539221E0,1.0076413E0,2.4130232E0,2.6415615E3,1.223994E0,2.1202576E0,1.2387472E2,5.541131E0,1.3626949E0,1.0320812E0,3.560008E0,1.731089E0,3.1264806E0,1.0003973E0,1.1198603E0,1.19812584E2,4.062132E0,4.5389147E0,1.0022165E0],"tree_param":{"num_deleted":"0","num_feature":"29","num_nodes":"55","size_leaf_vector":"0"}},{"base_weights":[-9.70633E-1,-4.780111E-2,-9.818023E-1,4.7298148E-1,-6.752296E-1,-9.9153435E-1,-7.9167044E-1,8.713397E-1,6.463266E-2,4.849808E-2,-8.489571E-1,-1.4476581E-1,-9.9261165E-1,-2.0128979E-1,-8.889245E-1,4.6340335E-2,1.1416314E0,-1.7745624E-1,6.6515064E-1,-3.8270625E-1,4.1591388E-1,-2.5092906E-1,-8.911531E-1,1.6850883E-1,-4.5940313E-1,-2.8628236E-1,-9.9358135E-1,1.2752014E0,-4.5113245E-1,-9.1900915E-1,-4.192847E-2,3.8840136E-1,1.4215199E0,5.6589544E-1,-4.347209E-1,4.8113292E-1,-6.8839365E-1,-9.940774E-1,-9.189194E-2,-8.692512E-1,2.3844637E-1,-6.5598595E-1,-9.9459976E-1,1.0002204E0,-6.921467E-1,1.6615318E-1,-6.111507E-1,-4.246972E-1,-9.9456596E-1,1.5325277E0,-4.203975E-1,1.7445669E-1,-9.510378E-1],"categories":[],"categories_nodes":[],"categories_segments":[],"categories_sizes":[],"default_left":[1,1,1,1,1,1,1,1,1,1,1,1,1,1,1,0,1,1,0,0,0,0,0,0,0,1,1,0,1,1,1,0,0,0,1,0,0,1,0,0,1,1,0,0,0,0,0,0,0,0,0,0,0],"id":13,"left_children":[1,3,5,7,9,11,13,15,17,19,21,23,25,27,29,-1,31,33,-1,-1,-1,-1,-1,-1,-1,35,37,-1,39,41,43,-1,-1,-1,45,-1,-1,47,-1,-1,49,51,-1,-1,-1,-1,-1,-1,-1,-1,-1,-1,-1],"loss_changes":[2.1683716E1,8.90086E0,3.069336E0,2.3738205E0,1.5906496E0,1.6602783E0,5.929573E0,1.6155014E0,1.3475301E0,6.8699586E-1,2.8529644E-2,4.4049928E-1,1.0682373E0,6.6027927E0,2.2815475E0,0E0,6.27058E-1,1.5496293E0,0E0,0E0,0E0,0E0,0E0,0E0,0E0,1.6002234E0,7.9052734E-1,0E0,4.4495525E0,1.0947571E0,3.5185833E0,0E0,0E0,0E0,6.983577E-1,0E0,0E0,1.2585449E-1,0E0,0E0,6.0485387E0,5.692374E0,0E0,0E0,0E0,0E0,0E0,0E0,0E0,0E0,0E0,0E0,0E0],"parents":[2147483647,0,0,1,1,2,2,3,3,4,4,5,5,6,6,7,7,8,8,9,9,10,10,11,11,12,12,13,13,14,14,16,16,17,17,25,25,26,26,28,28,29,29,30,30,34,34,37,37,40,40,41,41],"right_children":[2,4,6,8,10,12,14,16,18,20,22,24,26,28,30,-1,32,34,-1,-1,-1,-1,-1,-1,-1,36,38,-1,40,42,44,-1,-1,-1,46,-1,-1,48,-1,-1,50,52,-1,-1,-1,-1,-1,-1,-1,-1,-1,-1,-1],"split_conditions":[-3.5013747E0,1.5512943E-1,2.620275E0,5.3801775E-1,-1.9574236E0,-2.931788E0,-9.137347E-1,1.06479146E-1,9.2405E1,-3.9584923E-1,5.27998E-1,1.1449725E-1,-6.782819E0,2.8623195E0,5.1469007E0,1.3902101E-2,1.5550001E0,-3.8528845E0,1.995452E-1,-1.1481188E-1,1.24774165E-1,-7.527872E-2,-2.6734594E-1,5.055265E-2,-1.3782094E-1,1.039031E0,9.992542E0,3.8256046E-1,4.6193007E-1,-1.1026326E-1,-4.813291E-1,1.1652041E-1,4.2645597E-1,1.6976863E-1,3.0075413E-1,1.4433989E-1,-2.065181E-1,-4.117698E0,-2.7567582E-2,-2.6077536E-1,-7.2107576E-2,7.5950003E0,-2.9837993E-1,3.0006614E-1,-2.0764403E-1,4.9845956E-2,-1.8334521E-1,-1.2740916E-1,-2.983698E-1,4.597583E-1,-1.2611926E-1,5.233701E-2,-2.8531137E-1],"split_indices":[13,6,3,19,11,16,13,20,28,20,6,27,6,3,3,0,28,8,0,0,0,0,0,0,0,11,20,0,0,7,15,0,0,0,27,0,0,19,0,0,22,28,0,0,0,0,0,0,0,0,0,0,0],"split_type":[0,0,0,0,0,0,0,0,0,0,0,0,0,0,0,0,0,0,0,0,0,0,0,0,0,0,0,0,0,0,0,0,0,0,0,0,0,0,0,0,0,0,0,0,0,0,0,0,0,0,0,0,0],"sum_hessian":[2.10725E3,2.5262854E1,2.0819873E3,1.3939145E1,1.1323708E1,1.9765985E3,1.0538866E2,6.48196E0,7.4571853E0,2.3315578E0,8.99215E0,2.6836112E0,1.9739149E3,1.5339561E1,9.0049095E1,1.8886775E0,4.593282E0,5.8167524E0,1.6404331E0,1.0535179E0,1.2780397E0,1.0505034E0,7.9416466E0,1.5774387E0,1.1061723E0,3.112348E0,1.9708026E3,1.6260575E0,1.3713504E1,8.687822E1,3.1708715E0,1.8912611E0,2.7020214E0,1.1870823E0,4.62967E0,1.0025327E0,2.1098154E0,1.9696166E3,1.1859912E0,8.374912E0,5.338592E0,2.1554798E1,6.5323425E1,1.0114568E0,2.1594145E0,1.0640477E0,3.5656223E0,2.434585E0,1.967182E3,1.3536693E0,3.984923E0,5.757805E0,1.5796992E1],"tree_param":{"num_deleted":"0","num_feature":"29","num_nodes":"53","size_leaf_vector":"0"}},{"base_weights":[-9.570841E-1,-2.0766731E-2,-9.7021526E-1,4.58334E-1,-5.9350306E-1,-9.874944E-1,-7.893493E-1,9.9549603E-1,1.7760864E-1,1.08800404E-1,-7.4764466E-1,-1.7600074E-2,-9.881678E-1,-2.7476394E-1,-8.950324E-1,1.332179E0,-3.3679258E-2,-3.7096214E-2,6.910336E-1,-1.4742681E-1,-8.755004E-1,-9.8885083E-1,-1.377282E-1,1.4602653E0,-4.4707426E-1,-1.309426E-1,-9.274381E-1,-4.0869242E-1,4.0045682E-1,-9.8953766E-1,-1.7395905E-1,-7.2003865E-1,5.5320615E-1,1.0798504E0,-5.997196E-1,-9.43822E-1,-4.6425194E-2,-6.987144E-1,8.199325E-2,-1.5434982E-1,7.071354E-1,-2.3030382E-1,-9.8996884E-1,-8.131833E-1,2.1495347E-1,-6.681307E-1,1.353135E0,-7.5015086E-1,-6.984901E-3,-9.523848E-1,-7.564646E-3,4.8325688E-1,-5.3170484E-1],"categories":[],"categories_nodes":[],"categories_segments":[],"categories_sizes":[],"default_left":[1,1,1,1,1,1,1,1,1,0,1,0,1,1,1,0,0,1,0,0,0,1,0,0,1,1,1,1,1,1,0,1,1,0,1,1,1,0,0,0,0,0,0,0,0,0,0,0,0,0,0,0,0],"id":14,"left_children":[1,3,5,7,9,11,13,15,17,-1,19,-1,21,23,25,-1,-1,27,-1,-1,-1,29,-1,-1,31,33,35,37,39,41,-1,43,45,-1,47,49,51,-1,-1,-1,-1,-1,-1,-1,-1,-1,-1,-1,-1,-1,-1,-1,-1],"loss_changes":[1.9438965E1,6.5587616E0,4.0982666E0,1.7894871E0,1.2582252E0,9.1052246E-1,7.42704E0,1.5204377E0,1.1038523E0,0E0,5.6481266E-1,0E0,6.8859863E-1,8.271181E0,2.765892E0,0E0,0E0,1.4393657E0,0E0,0E0,0E0,6.217041E-1,0E0,0E0,6.9365644E0,4.0013156E0,1.5685043E0,7.3150706E-1,8.081627E-1,2.3583984E-1,0E0,1.8509932E0,6.472062E0,0E0,4.318918E-1,8.7153625E-1,1.0514888E0,0E0,0E0,0E0,0E0,0E0,0E0,0E0,0E0,0E0,0E0,0E0,0E0,0E0,0E0,0E0,0E0],"parents":[2147483647,0,0,1,1,2,2,3,3,4,4,5,5,6,6,7,7,8,8,10,10,12,12,13,13,14,14,17,17,21,21,24,24,25,25,26,26,27,27,28,28,29,29,31,31,32,32,34,34,35,35,36,36],"right_children":[2,4,6,8,10,12,14,16,18,-1,20,-1,22,24,26,-1,-1,28,-1,-1,-1,30,-1,-1,32,34,36,38,40,42,-1,44,46,-1,48,50,52,-1,-1,-1,-1,-1,-1,-1,-1,-1,-1,-1,-1,-1,-1,-1,-1],"split_conditions":[-3.5013747E0,-2.229636E-2,1.6614243E0,2.7830642E-1,-2.1953847E0,-4.7272205E0,-8.314749E-1,1.7873175E-1,9.2405E1,3.2640122E-2,-1.8757529E0,-5.2800225E-3,9.992542E0,-1.9213729E0,-2.775669E0,3.996537E-1,-1.0103778E-2,-1.9014251E-1,2.073101E-1,-4.4228047E-2,-2.6265013E-1,2.1225552E3,-4.131846E-2,4.380796E-1,1.4232501E0,4.97E0,5.821996E-1,-1.6068743E-1,2.913934E0,-3.8839116E0,-5.2187715E-2,6.577792E-1,-2.6924026E-1,3.2395515E-1,5.35268E-1,2.1449182E0,2.9669204E-1,-2.0961432E-1,2.4597976E-2,-4.630495E-2,2.1214062E-1,-6.909115E-2,-2.9699066E-1,-2.43955E-1,6.448604E-2,-2.0043921E-1,4.059405E-1,-2.2504526E-1,-2.0954704E-3,-2.8571546E-1,-2.269394E-3,1.4497706E-1,-1.5951146E-1],"split_indices":[13,6,3,7,11,5,13,12,28,0,9,0,20,7,11,0,0,21,0,0,0,28,0,0,15,28,27,25,3,16,0,20,25,0,10,25,11,0,0,0,0,0,0,0,0,0,0,0,0,0,0,0,0],"split_type":[0,0,0,0,0,0,0,0,0,0,0,0,0,0,0,0,0,0,0,0,0,0,0,0,0,0,0,0,0,0,0,0,0,0,0,0,0,0,0,0,0,0,0,0,0,0,0,0,0,0,0,0,0],"sum_hessian":[1.5816954E3,2.1910992E1,1.5597845E3,1.2039529E1,9.871462E0,1.4196932E3,1.400912E2,3.258432E0,8.781096E0,1.8295912E0,8.041871E0,1.0038198E0,1.4186895E3,2.4482494E1,1.1560871E2,2.23339E0,1.0250419E0,6.845981E0,1.9351156E0,1.7903162E0,6.251555E0,1.4173883E3,1.3011693E0,1.5365022E0,2.2945992E1,4.908661E0,1.1070005E2,3.7376792E0,3.108302E0,1.4159806E3,1.407752E0,1.8246819E1,4.699172E0,1.0062063E0,3.9024546E0,1.0860899E2,2.0910616E0,2.0827222E0,1.654957E0,1.2833399E0,1.8249621E0,1.1074239E0,1.4148732E3,1.6712214E1,1.5346062E0,1.9249331E0,2.7742388E0,2.9007037E0,1.0017511E0,1.0760761E2,1.0013806E0,1.0017841E0,1.0892775E0],"tree_param":{"num_deleted":"0","num_feature":"29","num_nodes":"53","size_leaf_vector":"0"}},{"base_weights":[-9.4094884E-1,-6.675751E-3,-9.5637846E-1,3.956723E-1,-5.520438E-1,-9.7908473E-1,-7.339721E-1,7.1613365E-1,4.7235258E-2,-7.461851E-1,7.8296036E-2,-9.799796E-1,-1.723268E-2,-2.2312005E-1,-8.604146E-1,9.7650295E-1,-1.2869316E-1,-5.099163E-1,2.501957E-1,-1.664902E-1,-8.152302E-1,3.377596E-1,-2.1854049E-1,-9.8089594E-1,-7.838772E-2,-8.8999903E-1,1.2895273E-1,-8.9037496E-1,1.4268054E-1,1.3449156E0,2.1504769E-1,-3.5212465E-2,6.4633816E-1,-9.835736E-1,-5.3462726E-1,5.7254344E-1,-6.399336E-1,-2.5900495E-1,-9.213252E-1,9.6891487E-1,-5.970437E-1,4.1446707E-1,1.5913316E0,2.559685E-1,-2.3460376E-1,-1.9703174E-1,-9.841949E-1,9.60833E-1,-8.709725E-1,1.7261996E0,-1.2345606E-1,8.8077426E-2,-8.2401454E-1,1.024881E0,-7.8261906E-1,-9.3240064E-1,-7.4645393E-3],"categories":[],"categories_nodes":[],"categories_segments":[],"categories_sizes":[],"default_left":[1,1,1,1,1,1,1,1,1,1,1,1,0,1,1,1,0,0,1,0,0,0,0,1,0,0,1,1,1,1,0,1,0,1,1,1,1,1,1,0,0,0,0,0,0,0,0,0,0,0,0,0,0,0,0,0,0],"id":15,"left_children":[1,3,5,7,9,11,13,15,17,19,21,23,-1,25,27,29,-1,-1,31,-1,-1,-1,-1,33,-1,-1,35,37,39,41,-1,43,-1,45,47,49,51,53,55,-1,-1,-1,-1,-1,-1,-1,-1,-1,-1,-1,-1,-1,-1,-1,-1,-1,-1],"loss_changes":[1.717212E1,4.687708E0,5.201538E0,1.3399675E0,1.167702E0,8.960571E-1,7.0807457E0,1.5198896E0,9.1517746E-1,1.454525E-1,3.0790976E-1,7.98645E-1,0E0,5.6767073E0,2.8289108E0,1.1026387E0,0E0,0E0,6.7581606E-1,0E0,0E0,0E0,0E0,7.390747E-1,0E0,0E0,5.9522157E0,1.4699326E0,2.6988292E0,6.3452244E-2,0E0,3.1003016E-1,0E0,3.1970215E-1,5.114479E0,8.975948E0,9.38828E-1,4.4839673E0,8.3267975E-1,0E0,0E0,0E0,0E0,0E0,0E0,0E0,0E0,0E0,0E0,0E0,0E0,0E0,0E0,0E0,0E0,0E0,0E0],"parents":[2147483647,0,0,1,1,2,2,3,3,4,4,5,5,6,6,7,7,8,8,9,9,10,10,11,11,13,13,14,14,15,15,18,18,23,23,26,26,27,27,28,28,29,29,31,31,33,33,34,34,35,35,36,36,37,37,38,38],"right_children":[2,4,6,8,10,12,14,16,18,20,22,24,-1,26,28,30,-1,-1,32,-1,-1,-1,-1,34,-1,-1,36,38,40,42,-1,44,-1,46,48,50,52,54,56,-1,-1,-1,-1,-1,-1,-1,-1,-1,-1,-1,-1,-1,-1,-1,-1,-1,-1],"split_conditions":[-3.5013747E0,1.5512943E-1,1.6614243E0,5.3801775E-1,3.983735E0,6.882106E0,-8.314749E-1,1.0211468E0,1.7236974E0,6.065287E-1,1.962569E-1,3.318368E0,-5.169804E-3,-5.3122675E-1,5.1469007E0,8.5196696E-2,-3.860795E-2,-1.529749E-1,-1.6988824E-1,-4.994706E-2,-2.4456906E-1,1.0132789E-1,-6.556215E-2,2.8797452E0,-2.3516318E-2,-2.6699972E-1,1.3936276E0,-2.775669E0,-4.813291E-1,-4.6198096E0,6.451431E-2,-5.994521E-2,1.9390146E-1,-3.8839116E0,-5.404475E-1,-4.745054E-2,-2.4431105E0,-9.729398E-2,2.1260505E0,2.9067448E-1,-1.7911312E-1,1.24340124E-1,4.773995E-1,7.679056E-2,-7.0381135E-2,-5.9109524E-2,-2.9525846E-1,2.882499E-1,-2.6129177E-1,5.1785994E-1,-3.703682E-2,2.6423229E-2,-2.4720438E-1,3.074643E-1,-2.3478572E-1,-2.7972022E-1,-2.2393619E-3],"split_indices":[13,6,3,19,3,4,13,4,3,6,12,16,0,10,3,12,0,0,21,0,0,0,0,6,0,0,1,11,15,13,0,23,0,16,25,9,16,25,25,0,0,0,0,0,0,0,0,0,0,0,0,0,0,0,0,0,0],"split_type":[0,0,0,0,0,0,0,0,0,0,0,0,0,0,0,0,0,0,0,0,0,0,0,0,0,0,0,0,0,0,0,0,0,0,0,0,0,0,0,0,0,0,0,0,0,0,0,0,0,0,0,0,0,0,0,0,0],"sum_hessian":[1.190673E3,1.9367884E1,1.171305E3,1.1303302E1,8.064583E0,1.0597128E3,1.1159231E2,5.3383183E0,5.964984E0,6.025101E0,2.0394814E0,1.058709E3,1.0037667E0,2.2689003E1,8.8903305E1,3.9615395E0,1.3767786E0,1.1889036E0,4.77608E0,1.0043143E0,5.020787E0,1.0146852E0,1.0247962E0,1.0575461E3,1.1628361E0,7.3116856E0,1.5377318E1,8.6434074E1,2.4692328E0,2.1534152E0,1.8081243E0,3.3056064E0,1.4704738E0,1.0500419E3,7.504368E0,9.913385E0,5.463933E0,4.4768567E0,8.1957214E1,1.0200529E0,1.4491799E0,1.012452E0,1.1409632E0,1.2282226E0,2.0773838E0,1.0798703E0,1.0489619E3,1.0369936E0,6.467374E0,3.1732996E0,6.740086E0,1.2080026E0,4.2559304E0,1.0195732E0,3.4572837E0,8.0955795E1,1.00142E0],"tree_param":{"num_deleted":"0","num_feature":"29","num_nodes":"57","size_leaf_vector":"0"}},{"base_weights":[-9.2081505E-1,-3.893389E-1,-9.5588094E-1,-6.7794514E-1,1.16563655E-1,-9.7728884E-1,-7.3960567E-1,1.15454786E-1,-7.9103065E-1,-3.6995578E-1,5.772953E-1,-9.810303E-1,-4.0284857E-1,-2.3644727E-1,-9.330781E-1,1.3045539E0,-4.5197642E-1,-8.520373E-1,1.5753868E-1,-7.031803E-1,2.6431087E-1,1.3189596E0,1.8853332E-1,-1.4422083E-2,-9.8228437E-1,8.7480754E-1,-8.2236516E-1,5.045256E-1,-6.779359E-1,-3.8416525E-3,-9.664438E-1,-6.679146E-1,-2.8279808E-3,-9.1100127E-1,-4.657426E-2,4.1184448E-2,-8.7043154E-1,7.614869E-1,-5.976394E-1,9.141964E-2,2.3149312E0,3.9268225E-1,-4.7289786E-1,-9.8353106E-1,-4.4052514E-1,1.3819271E0,-3.0555937E-1,4.9659064E-1,-7.954819E-1,-5.0314504E-1,4.9745014E-1,-2.1377312E-2,-9.83393E-1,-9.441377E-1,-2.232183E-3,4.9722013E-1,-5.347185E-1,1.1984749E0,-6.327499E-2,-6.8461574E-3,8.7075007E-1,-6.113933E-1,-2.1596386E-3,2.2426836E0,-5.580819E-1,8.527187E-1,-7.8518724E-1,4.930518E-1,-9.303315E-1],"categories":[],"categories_nodes":[],"categories_segments":[],"categories_sizes":[],"default_left":[1,1,1,1,1,1,1,1,1,1,1,1,1,1,1,0,1,1,0,1,1,1,1,0,1,0,0,1,1,1,1,0,0,1,1,0,0,1,0,0,0,1,0,0,1,1,1,0,1,0,0,0,0,0,0,0,0,0,0,0,0,0,0,0,0,0,0,0,0],"id":16,"left_children":[1,3,5,7,9,11,13,15,17,19,21,23,25,27,29,-1,31,33,-1,35,37,39,41,-1,43,-1,-1,45,47,49,51,-1,-1,53,55,-1,-1,57,-1,-1,-1,59,-1,-1,61,63,65,-1,67,-1,-1,-1,-1,-1,-1,-1,-1,-1,-1,-1,-1,-1,-1,-1,-1,-1,-1,-1,-1],"loss_changes":[1.6432678E1,8.474098E0,3.1904907E0,3.38937E0,5.086582E0,1.2510376E0,7.5904083E0,4.2725215E0,2.0034084E0,2.5494761E0,3.083344E0,9.0753174E-1,4.2855983E0,8.070124E0,1.7826195E0,0E0,4.2852002E-1,1.4063206E0,0E0,9.8260236E-1,2.4171958E0,4.4433804E0,1.3670428E0,0E0,7.952881E-2,0E0,0E0,7.098957E0,2.4977255E0,1.0014398E0,8.698082E-1,0E0,0E0,8.5219955E-1,1.09796E0,0E0,0E0,1.2808393E0,0E0,0E0,0E0,1.3872192E0,0E0,0E0,2.649237E-1,9.084181E0,3.8378553E0,0E0,2.9311047E0,0E0,0E0,0E0,0E0,0E0,0E0,0E0,0E0,0E0,0E0,0E0,0E0,0E0,0E0,0E0,0E0,0E0,0E0,0E0,0E0],"parents":[2147483647,0,0,1,1,2,2,3,3,4,4,5,5,6,6,7,7,8,8,9,9,10,10,11,11,12,12,13,13,14,14,16,16,17,17,19,19,20,20,21,21,22,22,24,24,27,27,28,28,29,29,30,30,33,33,34,34,37,37,41,41,44,44,45,45,46,46,48,48],"right_children":[2,4,6,8,10,12,14,16,18,20,22,24,26,28,30,-1,32,34,-1,36,38,40,42,-1,44,-1,-1,46,48,50,52,-1,-1,54,56,-1,-1,58,-1,-1,-1,60,-1,-1,62,64,66,-1,68,-1,-1,-1,-1,-1,-1,-1,-1,-1,-1,-1,-1,-1,-1,-1,-1,-1,-1,-1,-1],"split_conditions":[-1.6334205E0,1.9706564E0,1.6614243E0,-1.0818222E0,-5.0163567E-2,2.8797452E0,-1.1026326E-1,1.1825342E-1,2.76075E2,1.6987302E0,6.3172475E-2,-3.9401846E0,-5.404475E-1,-5.787041E-1,-2.1902509E0,3.9136618E-1,1.2702359E0,7.287748E-1,4.7261607E-2,-4.2430716E0,2.5948782E0,1.1588736E0,-1.7330709E0,-4.3266253E-3,1.2144451E0,2.6244226E-1,-2.4670956E-1,2.752248E-1,-1.7258923E0,-7.0968586E-1,-1.4445062E0,-2.003744E-1,-8.483943E-4,-1.6684148E0,-8.805164E-1,1.2355335E-2,-2.6112947E-1,1.1752235E-1,-1.7929181E-1,2.7425893E-2,6.9447935E-1,-2.1156244E0,-1.4186937E-1,-2.9505932E-1,4.6539706E-1,1.2106395E0,-1.7312413E-1,1.489772E-1,-5.0736628E0,-1.5094352E-1,1.4923505E-1,-6.413194E-3,-2.9501793E-1,-2.8324133E-1,-6.696549E-4,1.4916605E-1,-1.6041556E-1,3.595425E-1,-1.8982496E-2,-2.0538473E-3,2.6122504E-1,-1.8341799E-1,-6.478916E-4,6.7280513E-1,-1.6742459E-1,2.5581563E-1,-2.3555619E-1,1.4791554E-1,-2.7909946E-1],"split_indices":[13,3,3,6,20,6,7,7,28,10,27,22,25,11,18,0,10,11,0,13,15,17,2,0,26,0,0,13,14,23,24,0,0,13,9,0,0,12,0,0,0,5,0,0,6,2,20,0,7,0,0,0,0,0,0,0,0,0,0,0,0,0,0,0,0,0,0,0,0],"split_type":[0,0,0,0,0,0,0,0,0,0,0,0,0,0,0,0,0,0,0,0,0,0,0,0,0,0,0,0,0,0,0,0,0,0,0,0,0,0,0,0,0,0,0,0,0,0,0,0,0,0,0,0,0,0,0,0,0,0,0,0,0,0,0,0,0,0,0,0,0],"sum_hessian":[9.0070483E2,5.6497906E1,8.442069E2,3.5758434E1,2.073947E1,7.649681E2,7.923884E1,4.4583077E0,3.1300127E1,1.0183262E1,1.0556208E1,7.593147E2,5.6533594E0,2.2623823E1,5.6615013E1,1.020569E0,3.4377387E0,2.950434E1,1.7957894E0,6.6047006E0,3.5785608E0,2.8074844E0,7.748723E0,1.0000491E0,7.583147E2,1.1291645E0,4.524195E0,8.393613E0,1.4230211E1,2.0010397E0,5.461397E1,1.9926556E0,1.445083E0,2.736971E1,2.1346273E0,1.3500326E0,5.2546678E0,2.343421E0,1.23514E0,1.7465912E0,1.0608933E0,6.231654E0,1.5170689E0,7.5576013E2,2.554533E0,3.690517E0,4.703096E0,1.0012285E0,1.3228983E1,1.000656E0,1.0003839E0,1.0020525E0,5.361192E1,2.636929E1,1.000422E0,1.000961E0,1.1336664E0,1.2356262E0,1.1077948E0,3.93162E0,2.300034E0,1.5540695E0,1.0004634E0,2.4482455E0,1.2422714E0,1.1494219E0,3.5536737E0,1.0016422E0,1.2227341E1],"tree_param":{"num_deleted":"0","num_feature":"29","num_nodes":"69","size_leaf_vector":"0"}},{"base_weights":[-8.963173E-1,-3.2676002E-1,-9.3964404E-1,-5.3139913E-1,2.797403E-1,-9.672482E-1,-6.8281066E-1,-7.6431364E-1,-1.18734255E-1,4.5455265E-1,-6.195115E-1,-9.721959E-1,-3.378914E-1,-2.0334418E-1,-9.0837866E-1,1.8507391E-1,-8.5526156E-1,2.452604E-1,-8.1589335E-1,9.796444E-2,1.1990845E0,-1.4468279E-2,-9.738623E-1,6.606577E-1,-7.8650296E-1,-3.4153378E-1,1.3044348E0,-1.062641E-2,-9.5126724E-1,-8.956662E-1,-3.6932873E-3,8.902535E-1,-5.458098E-1,-5.175281E-1,2.5288817E-1,1.0621516E-1,1.9899831E0,-9.78692E-1,-6.582434E-1,2.3086566E-1,-7.6275986E-1,-5.081207E-1,4.972036E-1,-2.1125667E-2,-9.734469E-1,-1.6270958E-1,-9.5097345E-1,-6.343572E-1,1.5761946E0,8.820918E-2,-7.6863724E-1,2.2966212E-2,7.497983E-1,-3.278239E-1,-9.811797E-1,4.98153E-1,-8.1432444E-1,9.856362E-1,-6.290214E-1,4.9513662E-1,-9.170487E-1],"categories":[],"categories_nodes":[],"categories_segments":[],"categories_sizes":[],"default_left":[1,1,1,1,1,1,1,1,1,1,0,1,1,1,1,0,1,1,0,1,1,0,1,0,0,1,0,1,1,1,0,1,1,0,1,0,0,1,1,1,1,0,0,0,0,0,0,0,0,0,0,0,0,0,0,0,0,0,0,0,0],"id":17,"left_children":[1,3,5,7,9,11,13,15,17,19,-1,21,23,25,27,-1,29,31,-1,33,35,-1,37,-1,-1,39,-1,41,43,45,-1,47,49,-1,51,-1,-1,53,55,57,59,-1,-1,-1,-1,-1,-1,-1,-1,-1,-1,-1,-1,-1,-1,-1,-1,-1,-1,-1,-1],"loss_changes":[1.6632202E1,6.3617177E0,3.8583374E0,3.54002E0,2.3699162E0,1.4560547E0,6.8729763E0,2.2273245E0,3.9589674E0,2.9885342E0,0E0,8.9263916E-1,3.2087674E0,5.0641394E0,1.6875114E0,0E0,7.552204E-1,5.843602E0,0E0,9.890089E-1,2.986444E0,0E0,2.2021484E-1,0E0,0E0,5.263055E0,0E0,1.0160229E0,8.4732056E-1,6.982975E-1,0E0,7.4465065E0,8.216672E-1,0E0,8.809553E-1,0E0,0E0,5.794678E-1,2.4996295E0,6.9230795E0,2.8580046E0,0E0,0E0,0E0,0E0,0E0,0E0,0E0,0E0,0E0,0E0,0E0,0E0,0E0,0E0,0E0,0E0,0E0,0E0,0E0,0E0],"parents":[2147483647,0,0,1,1,2,2,3,3,4,4,5,5,6,6,7,7,8,8,9,9,11,11,12,12,13,13,14,14,16,16,17,17,19,19,20,20,22,22,25,25,27,27,28,28,29,29,31,31,32,32,34,34,37,37,38,38,39,39,40,40],"right_children":[2,4,6,8,10,12,14,16,18,20,-1,22,24,26,28,-1,30,32,-1,34,36,-1,38,-1,-1,40,-1,42,44,46,-1,48,50,-1,52,-1,-1,54,56,58,60,-1,-1,-1,-1,-1,-1,-1,-1,-1,-1,-1,-1,-1,-1,-1,-1,-1,-1,-1,-1],"split_conditions":[-1.6334205E0,2.857336E-1,1.6614243E0,1.035878E0,-5.3676218E-2,2.8797452E0,-1.1026326E-1,-2.5411477E0,1.9919856E0,1.2220694E-1,-1.8585345E-1,-2.2888641E0,-5.1649404E-1,2.1982384E0,-2.1902509E0,5.5522177E-2,-1.677573E0,1.7834918E0,-2.4476801E-1,1.984367E-1,-6.2339795E-1,-4.340484E-3,8.4492576E-1,1.9819732E-1,-2.359509E-1,-5.787041E-1,3.9133045E-1,-1.9783174E-1,-1.4433503E0,-2.5837893E0,-1.1079862E-3,-1.499241E-1,-4.2374396E0,-1.5525845E-1,9.2405E1,3.186455E-2,5.9699494E-1,-1.4639328E0,-1.3539724E0,4.3859765E-2,-1.7883552E0,-1.5243623E-1,1.4916109E-1,-6.3377004E-3,-2.920341E-1,-4.8812877E-2,-2.8529206E-1,-1.9030717E-1,4.728584E-1,2.6462756E-2,-2.3059118E-1,6.889864E-3,2.249395E-1,-9.834718E-2,-2.9435393E-1,1.494459E-1,-2.4429734E-1,2.9569086E-1,-1.8870643E-1,1.4854099E-1,-2.7511463E-1],"split_indices":[13,20,3,0,11,6,7,9,0,22,0,24,12,16,18,0,13,16,0,3,4,0,22,0,0,11,0,6,24,11,0,24,13,0,28,0,0,19,12,17,14,0,0,0,0,0,0,0,0,0,0,0,0,0,0,0,0,0,0,0,0],"split_type":[0,0,0,0,0,0,0,0,0,0,0,0,0,0,0,0,0,0,0,0,0,0,0,0,0,0,0,0,0,0,0,0,0,0,0,0,0,0,0,0,0,0,0,0,0,0,0,0,0,0,0,0,0,0,0,0,0,0,0,0,0],"sum_hessian":[6.85436E2,4.9059456E1,6.363765E2,3.6775032E1,1.2284426E1,5.7211957E2,6.425694E1,2.2962498E1,1.3812533E1,1.0699074E1,1.5853523E0,5.6711646E2,5.0031123E0,2.1166655E1,4.309029E1,1.9169449E0,2.1045553E1,9.500444E0,4.312089E0,7.9993978E0,2.6996758E0,1.0018634E0,5.6611456E2,1.4044107E0,3.5987017E0,2.0098125E1,1.0685298E0,2.0215955E0,4.106869E1,2.0042791E1,1.0027612E0,5.1643515E0,4.3360934E0,1.137946E0,6.8614516E0,1.6096907E0,1.0899851E0,5.5551306E2,1.0601496E1,8.711747E0,1.1386377E1,1.0209005E0,1.0006949E0,1.0019667E0,4.0066727E1,1.6828489E0,1.8359943E1,1.6258496E0,3.5385017E0,1.2847328E0,3.0513604E0,5.4062023E0,1.4552494E0,2.620731E0,5.5289233E2,1.0001087E0,9.601387E0,4.5615673E0,4.15018E0,1.0026612E0,1.0383717E1],"tree_param":{"num_deleted":"0","num_feature":"29","num_nodes":"61","size_leaf_vector":"0"}},{"base_weights":[-8.6633795E-1,-2.8203407E-1,-9.190097E-1,-8.2655346E-1,-6.756747E-2,-9.5463246E-1,-6.181853E-1,-8.9731926E-1,-3.8321794E-3,2.3302379E-1,-5.9097385E-1,-9.611441E-1,-2.84107E-1,-1.664691E-1,-8.774333E-1,-7.2510445E-1,3.9205942E-1,4.0244296E-1,-7.442627E-1,-3.732931E-1,-9.665223E-1,7.212242E-1,-7.676779E-1,5.1715827E-1,-4.3982315E-1,4.861536E-2,-9.322898E-1,1.1419928E0,1.3020708E-1,-6.4053394E-2,-8.996669E-1,7.2428167E-1,-7.7961296E-1,-9.731558E-1,-5.019792E-1,-3.3841062E-1,1.5745625E0,-7.051358E-1,5.379081E-1,-9.703605E-1,-7.279236E-2,2.1706722E0,-1.5442427E-1,3.4935808E-1,-7.286993E-1,1.5665907E-1,-2.5769204E-1,-2.6130703E-1,-9.7546E-1,-8.317769E-1,2.7899674E-1,4.622056E-1,-7.1383786E-1,-3.480993E-2,2.3835645E0,1.7787234E-1,-8.2878405E-1,1.5237918E0,-6.0889107E-1],"categories":[],"categories_nodes":[],"categories_segments":[],"categories_sizes":[],"default_left":[1,1,1,1,1,1,1,0,0,1,1,1,1,1,1,0,1,0,1,1,1,0,0,1,1,0,1,1,1,1,0,0,0,1,1,1,1,1,1,0,0,0,0,0,0,0,0,0,0,0,0,0,0,0,0,0,0,0,0],"id":18,"left_children":[1,3,5,7,9,11,13,-1,-1,15,17,19,21,23,25,-1,27,-1,29,31,33,-1,-1,35,37,-1,39,41,43,45,-1,-1,-1,47,49,51,53,55,57,-1,-1,-1,-1,-1,-1,-1,-1,-1,-1,-1,-1,-1,-1,-1,-1,-1,-1,-1,-1],"loss_changes":[1.5965698E1,5.203525E0,4.587433E0,7.3228455E-1,5.3924675E0,1.605072E0,6.1768894E0,0E0,0E0,3.6262913E0,2.1979542E0,9.8480225E-1,3.2551181E0,4.137272E0,1.7761135E0,0E0,3.6725767E0,0E0,1.1211338E0,3.0120175E0,8.091736E-1,0E0,0E0,6.3552966E0,4.39656E0,0E0,9.834938E-1,6.879751E0,3.1819208E0,1.7501752E-1,0E0,0E0,0E0,4.2437744E-1,2.2910478E0,1.646622E0,4.0609713E0,1.5246234E0,5.3063E0,0E0,0E0,0E0,0E0,0E0,0E0,0E0,0E0,0E0,0E0,0E0,0E0,0E0,0E0,0E0,0E0,0E0,0E0,0E0,0E0],"parents":[2147483647,0,0,1,1,2,2,3,3,4,4,5,5,6,6,9,9,10,10,11,11,12,12,13,13,14,14,16,16,18,18,19,19,20,20,23,23,24,24,26,26,27,27,28,28,29,29,33,33,34,34,35,35,36,36,37,37,38,38],"right_children":[2,4,6,8,10,12,14,-1,-1,16,18,20,22,24,26,-1,28,-1,30,32,34,-1,-1,36,38,-1,40,42,44,46,-1,-1,-1,48,50,52,54,56,58,-1,-1,-1,-1,-1,-1,-1,-1,-1,-1,-1,-1,-1,-1,-1,-1,-1,-1,-1,-1],"split_conditions":[-1.6334205E0,2.1758582E-1,1.6614243E0,2.082208E0,1.7788707E0,2.8797452E0,-1.1026326E-1,-2.691958E-1,-1.1496538E-3,-4.9122685E-1,-9.337052E-1,-1.4565747E0,7.400984E-1,-3.7716603E-1,1.7316875E0,-2.1753134E-1,6.152448E-1,1.20732896E-1,-1.8811865E0,-9.5191026E-1,8.4492576E-1,2.1636726E-1,-2.3030338E-1,1.4874047E-1,1.3942022E0,1.4584608E-2,8.768716E-1,3.1003775E-3,2.2950895E-1,1.4732866E-1,-2.6990008E-1,2.1728452E-1,-2.338839E-1,-1.1257137E0,3.3826578E-1,-4.8149258E-1,-6.0986415E-2,-2.7718248E0,2.8871202E0,-2.9110816E-1,-2.1837708E-2,6.5120167E-1,-4.632728E-2,1.0480743E-1,-2.1860981E-1,4.6997722E-2,-7.730761E-2,-7.839211E-2,-2.92638E-1,-2.4953309E-1,8.3699025E-2,1.3866168E-1,-2.1415137E-1,-1.0442979E-2,7.1506935E-1,5.3361706E-2,-2.4863522E-1,4.5713755E-1,-1.8266733E-1],"split_indices":[13,3,3,0,16,6,7,0,0,10,14,19,5,20,3,0,10,0,9,15,22,0,0,24,4,0,20,26,9,27,0,0,0,25,3,15,17,11,3,0,0,0,0,0,0,0,0,0,0,0,0,0,0,0,0,0,0,0,0],"split_type":[0,0,0,0,0,0,0,0,0,0,0,0,0,0,0,0,0,0,0,0,0,0,0,0,0,0,0,0,0,0,0,0,0,0,0,0,0,0,0,0,0,0,0,0,0,0,0,0,0,0,0,0,0,0,0,0,0,0,0],"sum_hessian":[5.261884E2,4.403612E1,4.8215228E2,1.1636829E1,3.2399292E1,4.291591E2,5.2993195E1,1.063168E1,1.005149E0,2.0932558E1,1.1466733E1,4.2460223E2,4.5568376E0,1.992238E1,3.3070812E1,2.4731858E0,1.8459373E1,1.3155673E0,1.0151166E1,4.487763E0,4.2011447E2,1.3203694E0,3.236468E0,5.435904E0,1.4486477E1,1.8558255E0,3.1214987E1,3.9074378E0,1.4551935E1,2.1505053E0,8.000661E0,1.0010712E0,3.4866917E0,4.1312042E2,6.9940677E0,3.3805711E0,2.0553331E0,1.1613811E1,2.8726664E0,2.9767475E1,1.4475114E0,1.8026838E0,2.104754E0,1.2066424E1,2.4855103E0,1.0942422E0,1.056263E0,1.7020669E0,4.1141833E2,4.871737E0,2.1223307E0,1.005388E0,2.375183E0,1.0076854E0,1.0476476E0,1.3726656E0,1.0241144E1,1.3679384E0,1.504728E0],"tree_param":{"num_deleted":"0","num_feature":"29","num_nodes":"59","size_leaf_vector":"0"}},{"base_weights":[-8.304795E-1,-9.139099E-1,-3.7745774E-1,-4.0960494E-1,-9.3667907E-1,3.1262983E-2,-6.844228E-1,-5.5807877E-1,8.3425456E-1,-9.4502836E-1,-2.4548984E-1,-7.300839E-1,1.9051257E-1,-1.162641E-1,-8.941301E-1,-6.8537295E-1,5.717233E-1,-3.2950842E-1,-9.517346E-1,7.8278065E-1,-7.545843E-1,4.09427E-1,-4.2003095E-1,1.0257921E0,-4.685187E-1,-9.2708784E-1,-1.6864836E-2,1.130662E-2,-8.197581E-1,6.87003E-1,-7.5350946E-1,-9.602837E-1,-4.433862E-1,1.5405937E0,2.1444723E-1,-6.425391E-1,5.3231847E-2,-7.3628944E-1,4.3852356E-1,-1.1791308E-1,-9.632156E-1,5.5656135E-1,-5.383427E-1,-2.2452462E-2,-8.9116776E-1,-9.6330297E-1,-1.2642708E-1,-6.773305E-1,4.983339E-1,4.258967E-1,-3.5447198E-1,-1.317305E-1,-7.4491286E-1,4.1938722E-1,-3.3119923E-1,4.327803E-3,-8.506086E-1],"categories":[],"categories_nodes":[],"categories_segments":[],"categories_sizes":[],"default_left":[1,1,1,1,1,1,1,1,0,1,1,0,1,1,1,1,0,1,1,0,0,1,1,0,1,1,0,1,1,0,0,1,1,0,1,1,1,1,0,0,0,0,0,0,0,0,0,0,0,0,0,0,0,0,0,0,0],"id":19,"left_children":[1,3,5,7,9,11,13,15,-1,17,19,-1,21,23,25,27,-1,29,31,-1,-1,33,35,-1,37,39,-1,41,43,-1,-1,45,47,-1,49,51,53,55,-1,-1,-1,-1,-1,-1,-1,-1,-1,-1,-1,-1,-1,-1,-1,-1,-1,-1,-1],"loss_changes":[1.5103699E1,3.5717468E0,8.210615E0,3.5419629E0,1.6655579E0,3.6493695E0,4.3425922E0,2.618235E0,0E0,1.026001E0,3.3522906E0,0E0,3.478228E0,4.9905796E0,7.681637E-1,1.3544416E0,0E0,2.684466E0,9.6713257E-1,0E0,0E0,3.7972198E0,7.736846E-1,0E0,2.5705857E0,6.496887E-1,0E0,1.2915405E0,6.6652775E-1,0E0,0E0,6.696472E-1,1.9146754E0,0E0,2.211038E0,1.5565538E-1,5.850058E-1,6.402364E-1,0E0,0E0,0E0,0E0,0E0,0E0,0E0,0E0,0E0,0E0,0E0,0E0,0E0,0E0,0E0,0E0,0E0,0E0,0E0],"parents":[2147483647,0,0,1,1,2,2,3,3,4,4,5,5,6,6,7,7,9,9,10,10,12,12,13,13,14,14,15,15,17,17,18,18,21,21,22,22,24,24,25,25,27,27,28,28,31,31,32,32,34,34,35,35,36,36,37,37],"right_children":[2,4,6,8,10,12,14,16,-1,18,20,-1,22,24,26,28,-1,30,32,-1,-1,34,36,-1,38,40,-1,42,44,-1,-1,46,48,-1,50,52,54,56,-1,-1,-1,-1,-1,-1,-1,-1,-1,-1,-1,-1,-1,-1,-1,-1,-1,-1,-1],"split_conditions":[1.6614243E0,-1.8248003E0,-7.294481E-1,-1.8861828E0,2.8797452E0,-5.3122675E-1,7.5950003E0,2.6083002E2,2.502764E-1,-1.4571369E0,-5.404475E-1,-2.1902518E-1,7.383735E-1,-1.4889429E0,9.423368E-1,-8.3237565E-1,1.7151698E-1,-1.1584487E0,8.4492576E-1,2.3483421E-1,-2.263753E-1,-1.9148026E0,3.893764E-1,3.0773765E-1,1.6821943E-1,-1.3766443E0,-5.059451E-3,-7.4797887E-1,-3.6836004E0,2.0610091E-1,-2.2605285E-1,1.09681E3,8.534107E-1,4.6217814E-1,1.7789035E0,-4.4102874E0,3.7499744E-1,1.6960892E-1,1.3155708E-1,-3.5373926E-2,-2.889647E-1,1.669684E-1,-1.6150282E-1,-6.735739E-3,-2.6735035E-1,-2.889909E-1,-3.7928127E-2,-2.0319916E-1,1.4950018E-1,1.2776902E-1,-1.063416E-1,-3.951915E-2,-2.2347386E-1,1.2581617E-1,-9.935977E-2,1.298341E-3,-2.551826E-1],"split_indices":[3,13,13,13,6,10,28,28,0,19,25,0,12,18,23,14,0,15,22,0,0,7,19,0,27,19,0,2,16,0,0,28,10,0,16,11,27,9,0,0,0,0,0,0,0,0,0,0,0,0,0,0,0,0,0,0,0],"split_type":[0,0,0,0,0,0,0,0,0,0,0,0,0,0,0,0,0,0,0,0,0,0,0,0,0,0,0,0,0,0,0,0,0,0,0,0,0,0,0,0,0,0,0,0,0,0,0,0,0,0,0,0,0,0,0,0,0],"sum_hessian":[4.0774033E2,3.4346835E2,6.427198E1,1.565786E1,3.278105E2,2.7952148E1,3.6319828E1,1.4480699E1,1.1771617E0,3.2353506E2,4.2754264E0,4.2152386E0,2.373691E1,1.0210634E1,2.6109196E1,1.3367911E1,1.1127869E0,4.0273614E0,3.195077E2,1.2377738E0,3.0376527E0,1.771462E1,6.022289E0,1.9562231E0,8.254411E0,2.5109087E1,1.0001084E0,2.3097208E0,1.105819E1,1.0028399E0,3.0245216E0,3.1334897E2,6.158723E0,1.5898534E0,1.6124767E1,3.8530629E0,2.1692262E0,6.518358E0,1.7360523E0,1.2553804E0,2.3853706E1,1.1531827E0,1.156538E0,1.0170462E0,1.0041144E1,3.120638E2,1.2851777E0,5.15809E0,1.000633E0,1.193886E1,4.1859074E0,1.0250733E0,2.8279896E0,1.06445E0,1.1047761E0,1.000267E0,5.518091E0],"tree_param":{"num_deleted":"0","num_feature":"29","num_nodes":"57","size_leaf_vector":"0"}},{"base_weights":[-7.868256E-1,-3.4315753E-1,-8.93823E-1,-7.0822203E-1,-1.9362604E-2,-9.0414333E-1,4.2370793E-1,-7.874883E-1,2.327931E-2,1.4681485E0,-1.0667573E-1,-4.2543495E-1,-9.2757934E-1,1.11964434E-1,-8.434116E-1,9.9741805E-1,-6.567095E-1,3.276796E-2,-6.853317E-1,6.9552916E-1,-7.3646724E-1,-5.403074E-1,-9.530817E-1,-8.7762535E-1,-8.708067E-4,-1.5731134E-1,6.2098765E-1,7.011417E-2,-8.3237964E-1,1.8065822E0,-5.8424747E-1,3.36736E-1,-9.026566E-1,-8.724095E-1,1.4952292E0,-9.6141917E-1,-1.4433318E-3,-9.515639E-1,-3.3599284E-1,2.2347365E-1,-4.2058954E-1,1.3828472E0,1.3148828E-1,-9.637163E-4,-9.3240076E-1,-1.5556838E-1,-9.656444E-1],"categories":[],"categories_nodes":[],"categories_segments":[],"categories_sizes":[],"default_left":[1,1,1,1,1,1,0,1,1,0,1,1,1,0,1,0,0,1,1,1,1,1,1,1,0,1,1,0,0,0,0,0,0,1,0,1,0,0,0,0,0,0,0,0,0,0,0],"id":20,"left_children":[1,3,5,7,9,11,-1,13,15,-1,17,19,21,-1,23,-1,-1,25,27,29,31,33,35,37,-1,39,41,-1,-1,-1,-1,-1,-1,43,-1,45,-1,-1,-1,-1,-1,-1,-1,-1,-1,-1,-1],"loss_changes":[1.4894867E1,7.533149E0,3.8827972E0,1.7567863E0,4.684606E0,2.4740753E0,0E0,1.4565334E0,3.2400618E0,0E0,2.7548132E0,5.3171415E0,1.884201E0,0E0,7.3752403E-1,0E0,0E0,3.2552958E0,7.938876E-1,6.0429487E0,2.314664E0,1.3010978E1,1.796524E0,6.6589355E-1,0E0,2.313772E0,2.4657161E0,0E0,0E0,0E0,0E0,0E0,0E0,8.104563E-1,0E0,6.14624E-1,0E0,0E0,0E0,0E0,0E0,0E0,0E0,0E0,0E0,0E0,0E0],"parents":[2147483647,0,0,1,1,2,2,3,3,4,4,5,5,7,7,8,8,10,10,11,11,12,12,14,14,17,17,18,18,19,19,20,20,21,21,22,22,23,23,25,25,26,26,33,33,35,35],"right_children":[2,4,6,8,10,12,-1,14,16,-1,18,20,22,-1,24,-1,-1,26,28,30,32,34,36,38,-1,40,42,-1,-1,-1,-1,-1,-1,44,-1,46,-1,-1,-1,-1,-1,-1,-1,-1,-1,-1,-1],"split_conditions":[-9.1378284E-1,7.562547E-1,5.1469007E0,1.377578E0,8.0504537E-1,-1.4894272E0,1.2711239E-1,-3.688727E0,-2.4100652E-1,4.4044456E-1,5.8061576E-1,3.935E0,-1.521673E0,3.3589333E-2,-9.400263E-1,2.9922542E-1,-1.9701286E-1,9.972E1,-4.7300738E-1,-7.699267E-2,-3.698858E-1,2.08315E2,1.2464268E0,7.286004E-1,-2.61242E-4,-8.553101E-2,-1.1370061E-1,2.1034252E-2,-2.497139E-1,5.4197466E-1,-1.7527425E-1,1.01020806E-1,-2.7079698E-1,-1.0485227E0,4.485688E-1,-1.1257137E0,-4.3299957E-4,-2.8546917E-1,-1.00797854E-1,6.70421E-2,-1.2617686E-1,4.1485417E-1,3.9446484E-2,-2.891149E-4,-2.7972025E-1,-4.6670515E-2,-2.8969333E-1],"split_indices":[13,3,3,15,3,18,0,13,12,0,8,28,12,0,13,0,0,28,24,25,22,28,25,11,0,19,26,0,0,0,0,0,0,15,0,25,0,0,0,0,0,0,0,0,0,0,0],"split_type":[0,0,0,0,0,0,0,0,0,0,0,0,0,0,0,0,0,0,0,0,0,0,0,0,0,0,0,0,0,0,0,0,0,0,0,0,0,0,0,0,0,0,0,0,0,0,0],"sum_hessian":[3.1922647E2,6.2844986E1,2.5638147E2,2.8981909E1,3.386308E1,2.5470013E2,1.6813343E0,2.6079382E1,2.9025278E0,1.000655E0,3.2862423E1,1.2781224E1,2.4191891E2,1.4679089E0,2.4611471E1,1.0012875E0,1.9012402E0,2.7241241E1,5.621183E0,2.5076015E0,1.02736225E1,1.631719E1,2.2560173E2,2.361104E1,1.0004325E0,2.114193E1,6.099311E0,1.001134E0,4.620049E0,1.1219387E0,1.3856629E0,1.2399783E0,9.033645E0,1.4519683E1,1.7975065E0,2.2363217E2,1.9695588E0,2.010909E1,3.5019484E0,8.704136E0,1.2437794E1,1.671991E0,4.42732E0,1.0006139E0,1.3519069E1,1.3636833E0,2.2226848E2],"tree_param":{"num_deleted":"0","num_feature":"29","num_nodes":"47","size_leaf_vector":"0"}},{"base_weights":[-7.3201275E-1,-8.5374695E-1,-2.397065E-1,-2.640568E-1,-8.9024633E-1,-7.578384E-2,-8.255361E-1,2.4955969E-1,-7.08062E-1,-9.126852E-1,-3.132472E-1,-4.0099236E-1,2.3383588E-1,-2.6910116E-3,-9.0549666E-1,-3.824094E-1,1.9899455E0,-6.3917115E-2,-8.3507526E-1,-7.035323E-1,-9.7303265E-1,1.4761664E0,-7.421E-1,4.0717825E-1,-5.732957E-1,1.3734182E0,5.8669683E-2,7.206187E-1,-7.5401455E-1,3.5822335E-1,-7.8627765E-1,-9.794001E-1,-4.350666E-2,-8.5258836E-1,-1.9861325E-3,-1.300312E-1,9.0344375E-1,2.3695397E-1,-6.56753E-1,-9.150243E-2,1.4633378E0,-6.420865E-1,1.4933167E0,-1.5761194E-1,-8.6582726E-1,-1.5710305E-1,-8.515034E-1,-3.2099035E-1,4.8225152E-1],"categories":[],"categories_nodes":[],"categories_segments":[],"categories_sizes":[],"default_left":[1,1,1,1,1,1,1,1,1,1,1,1,1,0,0,1,0,0,0,1,1,0,1,1,1,0,1,0,0,1,1,0,0,0,0,0,0,0,1,1,0,0,0,0,0,0,0,0,0],"id":21,"left_children":[1,3,5,7,9,11,13,15,17,19,21,23,25,-1,-1,27,-1,-1,-1,29,31,-1,33,35,37,-1,39,-1,-1,41,43,-1,-1,-1,-1,-1,-1,-1,45,47,-1,-1,-1,-1,-1,-1,-1,-1,-1],"loss_changes":[1.5080063E1,4.157593E0,4.9264708E0,3.2137625E0,2.1970062E0,4.2920637E0,7.3825836E-1,8.36565E0,5.523367E-1,1.6387177E0,7.772684E0,3.116456E0,4.3091884E0,0E0,0E0,2.9662676E0,0E0,0E0,0E0,4.2200375E0,7.8744507E-1,0E0,6.266937E-1,1.2433479E0,1.3376904E0,0E0,4.375044E0,0E0,0E0,5.418847E0,1.9589558E0,0E0,0E0,0E0,0E0,0E0,0E0,0E0,1.4341807E0,2.6703472E0,0E0,0E0,0E0,0E0,0E0,0E0,0E0,0E0,0E0],"parents":[2147483647,0,0,1,1,2,2,3,3,4,4,5,5,6,6,7,7,8,8,9,9,10,10,11,11,12,12,15,15,19,19,20,20,22,22,23,23,24,24,26,26,29,29,30,30,38,38,39,39],"right_children":[2,4,6,8,10,12,14,16,18,20,22,24,26,-1,-1,28,-1,-1,-1,30,32,-1,34,36,38,-1,40,-1,-1,42,44,-1,-1,-1,-1,-1,-1,-1,46,48,-1,-1,-1,-1,-1,-1,-1,-1,-1],"split_conditions":[1.6614243E0,-1.8248003E0,1.2197121E0,-1.2093938E-1,5.19875E2,3.5761144E-2,1.7661388E0,1.2609131E0,-2.8062334E0,-4.3168968E-1,-1.338803E0,-1.2747834E0,7.65E-1,-8.073035E-4,-2.71649E-1,-8.084404E-1,5.969837E-1,-1.9175135E-2,-2.5052258E-1,-5.1060003E-1,2.6713243E0,4.4284993E-1,6.840099E-1,1.3093865E0,-2.9536297E0,4.1202548E-1,1.0187883E0,2.1618563E-1,-2.2620438E-1,5.3460423E-2,-9.483902E-1,-2.9382005E-1,-1.3051999E-2,-2.5577652E-1,-5.9583975E-4,-3.9009362E-2,2.7103314E-1,7.10862E-2,-8.133466E-1,1.7067587E0,4.3900135E-1,-1.9262595E-1,4.47995E-1,-4.7283582E-2,-2.597482E-1,-4.7130916E-2,-2.5545102E-1,-9.629711E-2,1.4467546E-1],"split_indices":[3,13,2,25,28,27,3,0,9,13,12,16,28,0,0,6,0,0,0,19,13,0,18,1,13,0,2,0,0,3,12,0,0,0,0,0,0,0,11,16,0,0,0,0,0,0,0,0,0],"split_type":[0,0,0,0,0,0,0,0,0,0,0,0,0,0,0,0,0,0,0,0,0,0,0,0,0,0,0,0,0,0,0,0,0,0,0,0,0,0,0,0,0,0,0,0,0,0,0,0,0],"sum_hessian":[2.5404062E2,2.0308815E2,5.095246E1,1.2317607E1,1.9077055E2,4.0694874E1,1.0257587E1,5.9141593E0,6.403448E0,1.830694E2,7.701153E0,1.9703854E1,2.099102E1,1.0000542E0,9.257534E0,4.91111E0,1.0030494E0,1.3022659E0,5.101182E0,4.3827938E1,1.3924146E2,1.0167161E0,6.684437E0,3.2230997E0,1.6480755E1,1.8852768E0,1.9105743E1,1.0009135E0,3.9101963E0,2.927983E0,4.0899956E1,1.3824083E2,1.0006322E0,5.683937E0,1.0004995E0,1.9020755E0,1.3210241E0,1.3672734E0,1.5113481E1,1.8105007E1,1.0007358E0,1.7872695E0,1.1407137E0,4.9289217E0,3.5971035E1,4.745404E0,1.0368077E1,1.3247047E1,4.85796E0],"tree_param":{"num_deleted":"0","num_feature":"29","num_nodes":"49","size_leaf_vector":"0"}},{"base_weights":[-6.721211E-1,-2.3693386E-1,-8.30469E-1,-7.7684736E-1,-6.295443E-2,-8.913808E-1,-3.0957526E-1,-9.108661E-1,2.4457416E-2,3.79662E-2,-8.1076884E-1,2.198404E-1,-9.1783905E-1,7.424203E-1,-5.83614E-1,-1.2069766E-1,1.6002511E0,1.1969591E0,-6.371579E-1,-5.0044835E-2,-9.3922204E-1,2.2030768E0,-6.479036E-1,-8.3683693E-1,5.9268516E-1,6.81003E-1,-2.3567937E-1,1.3688587E-1,2.5787773E0,1.0001148E0,-6.8981886E-1,-2.3774514E-1,-9.528955E-1,-9.118002E-1,-8.37276E-4,9.9536186E-1,-6.983651E-2,-1.4255232E-1,1.7531796E0,-4.5870024E-1,1.5220897E-1,-6.414978E-1,4.414153E-1,-2.519009E-1,-9.60351E-1],"categories":[],"categories_nodes":[],"categories_segments":[],"categories_sizes":[],"default_left":[1,1,1,1,1,1,1,0,0,1,0,1,1,1,1,1,1,0,0,1,1,0,0,1,1,1,1,0,0,0,0,1,1,0,0,0,0,0,0,0,0,0,0,0,0],"id":22,"left_children":[1,3,5,7,9,11,13,-1,-1,15,-1,17,19,21,23,25,27,-1,-1,29,31,-1,-1,33,35,37,39,-1,-1,-1,-1,41,43,-1,-1,-1,-1,-1,-1,-1,-1,-1,-1,-1,-1],"loss_changes":[1.3960434E1,5.230979E0,4.490738E0,1.4838676E0,3.3211505E0,4.140709E0,5.4093256E0,0E0,0E0,9.951993E0,0E0,4.047292E0,2.3847656E0,9.565183E0,4.7416015E0,3.5407445E0,4.9449415E0,0E0,0E0,3.516961E0,9.9967194E-1,0E0,0E0,7.602434E-1,8.992659E-1,4.5383434E0,2.9083815E0,0E0,0E0,0E0,0E0,1.318801E0,4.1171265E-1,0E0,0E0,0E0,0E0,0E0,0E0,0E0,0E0,0E0,0E0,0E0,0E0],"parents":[2147483647,0,0,1,1,2,2,3,3,4,4,5,5,6,6,9,9,11,11,12,12,13,13,14,14,15,15,16,16,19,19,20,20,23,23,24,24,25,25,26,26,31,31,32,32],"right_children":[2,4,6,8,10,12,14,-1,-1,16,-1,18,20,22,24,26,28,-1,-1,30,32,-1,-1,34,36,38,40,-1,-1,-1,-1,42,44,-1,-1,-1,-1,-1,-1,-1,-1,-1,-1,-1,-1],"split_conditions":[-8.1930363E-1,-2.677023E-1,1.0782324E0,1.5333793E0,1.2198607E0,-1.3766443E0,-5.049101E-1,-2.7325985E-1,7.337225E-3,6.056102E-1,-2.4323066E-1,-2.3785505E-1,-2.776403E0,-5.170708E-1,2.619598E0,-4.5313942E-1,2.3007143E-1,3.5908777E-1,-1.9114739E-1,4.4049997E0,-1.2222015E0,6.6092306E-1,-1.9437109E-1,9.026077E-1,3.1721344E0,5.79321E-1,1.7017431E0,4.106576E-2,7.7363324E-1,3.0003446E-1,-2.0694567E-1,8.9071727E-1,-2.1558728E0,-2.7354008E-1,-2.5118282E-4,2.9860857E-1,-2.0950954E-2,-4.2765696E-2,5.259539E-1,-1.3761008E-1,4.5662694E-2,-1.9244935E-1,1.324246E-1,-7.557028E-2,-2.881053E-1],"split_indices":[13,3,6,15,2,19,25,0,0,2,0,11,11,12,3,25,23,0,0,28,24,0,0,14,3,8,10,0,0,0,0,18,15,0,0,0,0,0,0,0,0,0,0,0,0],"split_type":[0,0,0,0,0,0,0,0,0,0,0,0,0,0,0,0,0,0,0,0,0,0,0,0,0,0,0,0,0,0,0,0,0,0,0,0,0,0,0,0,0,0,0,0,0],"sum_hessian":[2.0444188E2,5.5208557E1,1.4923332E2,1.2610134E1,4.2598423E1,1.3297264E2,1.626068E1,1.0686142E1,1.9239924E0,3.836953E1,4.228895E0,2.9224784E0,1.3005017E2,3.0072181E0,1.3253462E1,3.5669697E1,2.6998308E0,1.1801856E0,1.7422929E0,3.2077854E0,1.2684238E2,1.1814373E0,1.8257809E0,1.1143233E1,2.110229E0,3.85667E0,3.1813028E1,1.5386708E0,1.16116E0,1.0011737E0,2.2066116E0,2.776753E0,1.2406563E2,1.0143045E1,1.000187E0,1.0000316E0,1.1101973E0,2.6716096E0,1.1850605E0,2.0083328E1,1.1729699E1,1.776249E0,1.0005038E0,1.6717122E0,1.2239391E2],"tree_param":{"num_deleted":"0","num_feature":"29","num_nodes":"45","size_leaf_vector":"0"}},{"base_weights":[-6.0479623E-1,-8.437539E-1,-2.5465274E-1,-2.1532236E-1,-8.836746E-1,9.8026425E-2,-5.496032E-1,-5.4316026E-1,7.268363E-1,-4.9884987E-1,-9.3884516E-1,8.812471E-1,-3.661482E-2,7.242373E-1,-6.399153E-1,1.3169882E-1,-7.6442116E-1,-7.5199246E-1,7.0403904E-1,-9.5058197E-1,-4.2826138E-4,-4.9619982E-1,1.6044022E0,9.756688E-1,-1.4544351E-1,-5.040676E-1,1.591965E0,4.0085778E-1,-7.1931875E-1,-9.096374E-1,3.799169E-1,-9.625935E-1,-1.5139042E-3,3.3460084E-1,2.1067634E0,1.22952186E-1,-7.979306E-1,-5.147698E-1,1.0780858E0,-8.130982E-1,2.956758E-1,-9.872869E-1,-3.7119794E-1,4.4460922E-1,-2.7404004E-1,-1.2995952E-1,-8.7809306E-1,-3.4054615E-2,-8.964278E-1,8.871313E-1,-5.3603804E-1],"categories":[],"categories_nodes":[],"categories_segments":[],"categories_sizes":[],"default_left":[1,1,1,1,1,1,1,1,0,1,1,1,1,1,1,0,0,1,0,1,0,0,1,0,1,0,0,1,1,0,0,1,0,0,0,1,1,0,0,1,1,0,0,0,0,0,0,0,0,0,0],"id":23,"left_children":[1,3,5,7,9,11,13,15,-1,17,19,21,23,25,27,-1,-1,29,-1,31,-1,-1,33,-1,35,-1,-1,37,39,-1,-1,41,-1,-1,-1,43,45,-1,-1,47,49,-1,-1,-1,-1,-1,-1,-1,-1,-1,-1],"loss_changes":[1.3940487E1,2.3215942E0,7.3414736E0,2.6503801E0,1.5235748E0,3.4864113E0,4.8699055E0,9.9507177E-1,0E0,4.7613907E0,8.908844E-1,5.62198E0,3.3268244E0,4.0051537E0,3.288023E0,0E0,0E0,2.4806561E0,0E0,9.0966034E-1,0E0,0E0,1.4722872E0,0E0,4.821957E0,0E0,0E0,2.548615E0,3.4845905E0,0E0,0E0,7.860794E-1,0E0,0E0,0E0,2.6730564E0,3.140006E-1,0E0,0E0,2.0122032E0,2.2543344E0,0E0,0E0,0E0,0E0,0E0,0E0,0E0,0E0,0E0,0E0],"parents":[2147483647,0,0,1,1,2,2,3,3,4,4,5,5,6,6,7,7,9,9,10,10,11,11,12,12,13,13,14,14,17,17,19,19,22,22,24,24,27,27,28,28,31,31,35,35,36,36,39,39,40,40],"right_children":[2,4,6,8,10,12,14,16,-1,18,20,22,24,26,28,-1,-1,30,-1,32,-1,-1,34,-1,36,-1,-1,38,40,-1,-1,42,-1,-1,-1,44,46,-1,-1,48,50,-1,-1,-1,-1,-1,-1,-1,-1,-1,-1],"split_conditions":[7.563969E-1,-1.8248003E0,-4.603054E-1,-1.9490492E0,-4.9515545E-1,-1.0933297E0,-1.4294697E0,-3.688727E0,2.1805091E-1,-5.4096425E-1,1.1796103E0,-3.9622679E0,-1.9290395E0,-1.915326E-1,7.65E-1,3.9509647E-2,-2.2932635E-1,6.337911E-1,2.1121173E-1,9.464991E-1,-1.2847842E-4,-1.4885995E-1,2.8208625E-1,2.9270065E-1,1.9103335E-1,-1.5122029E-1,4.7758952E-1,3.1156756E-2,1.5064104E0,-2.7289122E-1,1.1397508E-1,1.3777537E0,-4.5417127E-4,1.0038026E-1,6.3202906E-1,7.5950003E0,-3.170823E0,-1.5443094E-1,3.2342574E-1,-4.750502E-1,-4.5971525E-1,-2.961861E-1,-1.1135939E-1,1.3338277E-1,-8.2212016E-2,-3.898786E-2,-2.6342794E-1,-1.0216385E-2,-2.6892835E-1,2.661394E-1,-1.6081142E-1],"split_indices":[3,13,11,13,25,1,9,13,0,25,25,1,7,8,28,0,0,19,0,26,0,0,18,0,5,0,0,27,15,0,0,15,0,0,0,28,13,0,0,19,14,0,0,0,0,0,0,0,0,0,0],"split_type":[0,0,0,0,0,0,0,0,0,0,0,0,0,0,0,0,0,0,0,0,0,0,0,0,0,0,0,0,0,0,0,0,0,0,0,0,0,0,0,0,0,0,0,0,0,0,0,0,0,0,0],"sum_hessian":[1.6818182E2,9.912418E1,6.905765E1,6.302595E0,9.282159E1,3.175505E1,3.73026E1,4.9898114E0,1.312784E0,1.2897947E1,7.992364E1,3.8447325E0,2.7910318E1,2.004872E0,3.529773E1,1.3319782E0,3.657833E0,1.0965212E1,1.9327351E0,7.892358E1,1.0000625E0,1.4316341E0,2.4130986E0,1.936116E0,2.5974201E1,1.0034877E0,1.0013843E0,2.2151031E0,3.3082626E1,9.797105E0,1.1681074E0,7.792312E1,1.000458E0,1.1563325E0,1.2567661E0,1.8978926E1,6.995276E0,1.0437784E0,1.1713247E0,3.0466606E1,2.616019E0,7.4157295E1,3.765823E0,1.04179735E1,8.560952E0,1.0304053E0,5.964871E0,3.0800529E0,2.7386553E1,1.4898874E0,1.1261318E0],"tree_param":{"num_deleted":"0","num_feature":"29","num_nodes":"51","size_leaf_vector":"0"}},{"base_weights":[-5.3874916E-1,-8.0075157E-1,-2.0536305E-1,-4.0466565E-1,-8.900816E-1,7.695654E-2,-4.8083305E-1,-6.6846967E-1,4.3747535E-1,-9.1897565E-1,-1.9584322E-2,2.2380036E-1,-5.335623E-1,9.8825324E-1,-5.5955887E-1,-1.8877265E-1,-8.7705404E-1,1.4611028E0,-4.153898E-1,-9.493818E-1,-1.870513E-1,-5.1482165E-1,4.9911726E-1,-4.777515E-2,7.3139745E-1,-1.07053354E-1,-7.8904873E-1,4.137449E-1,-6.4864504E-1,-7.47368E-1,8.5050017E-1,-5.218478E-2,-5.5574876E-1,-1.181283E-3,-9.658395E-1,4.9969494E-1,-6.2839824E-1,2.2019844E-1,-6.622247E-1,-5.487778E-1,1.1116076E0,-3.586363E-1,2.0883243E-1,9.473754E-1,-2.9083723E-1,1.7626023E-1,-7.8087056E-1,-9.827898E-1,-1.0333152E-1,-1.9748396E-1,5.926289E-1,1.41789615E-2,-8.06E-1,1.5491014E0,-3.516324E-1,-5.367468E-1,1.439257E0,-6.0040668E-2,-8.46895E-1],"categories":[],"categories_nodes":[],"categories_segments":[],"categories_sizes":[],"default_left":[1,1,1,1,1,1,1,1,1,1,1,1,1,0,1,1,0,0,1,1,1,0,0,1,1,1,0,1,1,0,0,0,0,0,1,0,0,1,1,0,1,0,0,0,0,1,1,0,0,0,0,0,0,0,0,0,0,0,0],"id":24,"left_children":[1,3,5,7,9,11,13,15,17,19,21,23,25,-1,27,29,-1,-1,31,33,35,-1,-1,37,39,41,-1,43,45,-1,-1,-1,-1,-1,47,-1,-1,49,51,-1,53,-1,-1,-1,-1,55,57,-1,-1,-1,-1,-1,-1,-1,-1,-1,-1,-1,-1],"loss_changes":[1.215107E1,2.4210167E0,4.9668493E0,3.9134233E0,1.5742645E0,3.0032685E0,4.27962E0,1.1158409E0,4.5287538E0,1.1855278E0,1.0418625E0,3.7066298E0,6.2735045E-1,0E0,2.9755316E0,3.6284885E0,0E0,0E0,1.3561857E-1,9.127159E-1,1.4319242E0,0E0,0E0,3.1574428E0,5.158491E0,3.613199E-1,0E0,1.4894503E0,3.2999983E0,0E0,0E0,0E0,0E0,0E0,7.39975E-1,0E0,0E0,2.2149503E0,5.7586217E-1,0E0,5.368618E0,0E0,0E0,0E0,0E0,5.114091E0,1.1471367E0,0E0,0E0,0E0,0E0,0E0,0E0,0E0,0E0,0E0,0E0,0E0,0E0],"parents":[2147483647,0,0,1,1,2,2,3,3,4,4,5,5,6,6,7,7,8,8,9,9,10,10,11,11,12,12,14,14,15,15,18,18,19,19,20,20,23,23,24,24,25,25,27,27,28,28,34,34,37,37,38,38,40,40,45,45,46,46],"right_children":[2,4,6,8,10,12,14,16,18,20,22,24,26,-1,28,30,-1,-1,32,34,36,-1,-1,38,40,42,-1,44,46,-1,-1,-1,-1,-1,48,-1,-1,50,52,-1,54,-1,-1,-1,-1,56,58,-1,-1,-1,-1,-1,-1,-1,-1,-1,-1,-1,-1],"split_conditions":[7.563969E-1,-8.872169E-1,-4.603054E-1,1.6330609E-1,8.446077E-1,1.4781482E0,7.8328335E-1,-5.63657E-1,4.0875208E-1,1.1900029E0,-7.629798E-2,-9.738108E-1,-1.9226618E0,2.9647598E-1,-1.4536431E0,-4.5842405E-2,-2.631162E-1,4.3833086E-1,2.1292022E-1,-1.1556063E0,-3.1954986E-1,-1.544465E-1,1.4973518E-1,-2.2628145E0,-1.13566E0,1.4823228E-1,-2.3671463E-1,1.5839142E-1,-1.4894272E0,-2.242104E-1,2.5515005E-1,-1.5655434E-2,-1.6672464E-1,-3.5438492E-4,1.8423104E0,1.4990848E-1,-1.8851948E-1,-8.023983E-2,-6.780305E-1,-1.6463335E-1,2.8940177E0,-1.0759089E-1,6.2649734E-2,2.8421265E-1,-8.725117E-2,-1.6437085E0,9.016869E-1,-2.9483697E-1,-3.0999457E-2,-5.9245188E-2,1.7778867E-1,4.2536887E-3,-2.4180001E-1,4.647304E-1,-1.0548972E-1,-1.6102405E-1,4.3177712E-1,-1.8012201E-2,-2.540685E-1],"split_indices":[3,9,11,3,22,15,3,4,3,18,11,11,18,0,12,1,0,0,6,19,6,0,0,11,2,25,0,7,18,0,0,0,0,0,15,0,0,22,6,0,3,0,0,0,0,18,3,0,0,0,0,0,0,0,0,0,0,0,0],"split_type":[0,0,0,0,0,0,0,0,0,0,0,0,0,0,0,0,0,0,0,0,0,0,0,0,0,0,0,0,0,0,0,0,0,0,0,0,0,0,0,0,0,0,0,0,0,0,0,0,0,0,0,0,0,0,0,0,0,0,0],"sum_hessian":[1.399937E2,7.7604095E1,6.2389606E1,1.529898E1,6.230512E1,3.1167627E1,3.122198E1,1.1806707E1,3.4922721E0,6.0249588E1,2.055532E0,2.5635199E1,5.5324287E0,1.0004116E0,3.0221567E1,4.155352E0,7.6513553E0,1.263101E0,2.2291713E0,5.756123E1,2.688358E0,1.0553768E0,1.0001551E0,1.729036E1,8.344839E0,2.6041236E0,2.9283051E0,2.228622E0,2.7992945E1,2.8853755E0,1.2699767E0,1.0037013E0,1.2254698E0,1.0003157E0,5.6560913E1,1.0000509E0,1.6883072E0,1.2486419E1,4.803941E0,1.8093536E0,6.5354853E0,1.3742698E0,1.2298539E0,1.0720726E0,1.1565493E0,3.821156E0,2.417179E1,5.5334015E1,1.2268986E0,6.1070633E0,6.3793554E0,1.0001284E0,3.8038125E0,4.9860334E0,1.5494518E0,2.8098922E0,1.0112638E0,2.1884522E0,2.1983337E1],"tree_param":{"num_deleted":"0","num_feature":"29","num_nodes":"59","size_leaf_vector":"0"}},{"base_weights":[-4.7410506E-1,-1.2689398E-1,-7.3462677E-1,-6.651711E-1,3.089317E-2,-8.438194E-1,9.457879E-2,-8.868819E-1,2.0079501E-2,-3.7510237E-1,2.2502865E-1,-9.4375885E-1,-3.4680226E-1,1.1681972E0,-3.313691E-1,9.9839807E-1,-6.5435493E-1,-5.963786E-1,9.9704616E-2,3.6708796E-1,-5.7975376E-1,-9.5978343E-1,-7.754686E-2,2.646926E-1,-7.383142E-1,-6.6607183E-1,6.8217456E-1,-4.5114018E-2,-8.1136113E-1,-5.574807E-1,5.2797407E-1,2.0496467E-1,2.0773778E0,-6.5403467E-4,-7.342188E-1,-9.7890896E-1,-4.626435E-1,6.985805E-1,-5.805036E-1,-1.6184652E-2,-8.476751E-1,-2.3372776E-3,-8.012511E-1,2.565463E-1,-3.060054E-1,-2.4937013E-1,9.7128236E-1,4.122737E-1,-5.992174E-1,-1.9687154E-4,-6.326175E-1,-3.2477254E-1,1.7264726E0],"categories":[],"categories_nodes":[],"categories_segments":[],"categories_sizes":[],"default_left":[1,1,1,1,1,1,1,0,1,1,1,1,1,0,1,0,0,1,1,1,1,1,0,1,1,1,0,1,0,0,1,1,0,0,0,0,1,1,0,0,0,0,0,0,0,0,0,0,0,0,0,0,0],"id":25,"left_children":[1,3,5,7,9,11,13,-1,15,17,19,21,23,-1,25,-1,-1,27,29,31,33,35,-1,37,39,41,-1,43,-1,-1,45,47,-1,-1,-1,-1,49,51,-1,-1,-1,-1,-1,-1,-1,-1,-1,-1,-1,-1,-1,-1,-1],"loss_changes":[1.0855436E1,4.5301056E0,6.322132E0,1.8531356E0,3.3959565E0,2.7037506E0,4.4669456E0,0E0,3.2469876E0,1.5268155E0,3.5338657E0,6.2272644E-1,3.0196905E0,0E0,2.88547E0,0E0,0E0,1.1093926E0,1.785046E0,6.5900826E0,4.2405415E-1,1.5144348E-2,0E0,2.3641374E0,5.751023E-1,5.268924E-1,0E0,3.7535554E-1,0E0,0E0,1.5242487E0,4.2850776E0,0E0,0E0,0E0,0E0,2.9225856E-1,4.750416E0,0E0,0E0,0E0,0E0,0E0,0E0,0E0,0E0,0E0,0E0,0E0,0E0,0E0,0E0,0E0],"parents":[2147483647,0,0,1,1,2,2,3,3,4,4,5,5,6,6,8,8,9,9,10,10,11,11,12,12,14,14,17,17,18,18,19,19,20,20,21,21,23,23,24,24,25,25,27,27,30,30,31,31,36,36,37,37],"right_children":[2,4,6,8,10,12,14,-1,16,18,20,22,24,-1,26,-1,-1,28,30,32,34,36,-1,38,40,42,-1,44,-1,-1,46,48,-1,-1,-1,-1,50,52,-1,-1,-1,-1,-1,-1,-1,-1,-1,-1,-1,-1,-1,-1,-1],"split_conditions":[-4.3168968E-1,-2.6756912E-1,1.294971E0,4.2304432E-1,3.1149998E0,1.7313156E0,1.5015929E0,-2.6606458E-1,-2.7537626E-1,1.8949834E-1,1.2198541E0,1.7386708E0,7.185E0,3.5045916E-1,6.5757287E-1,2.9951942E-1,-1.9630648E-1,-4.2418623E0,-1.8335283E-2,1.0877955E0,-8.964423E-1,1.5746936E0,-2.3264058E-2,1.3450278E-1,-1.1536512E0,-7.9994774E-1,2.0465238E-1,2.4066157E0,-2.4340835E-1,-1.6724421E-1,3.4915006E-1,3.9314952E-1,6.2321335E-1,-1.9621041E-4,-2.2026564E-1,-2.936727E-1,1.2532197E-1,-1.0435571E-1,-1.7415108E-1,-4.8553958E-3,-2.5430253E-1,-7.0118334E-4,-2.4037534E-1,7.696389E-2,-9.180162E-2,-7.481104E-2,2.9138473E-1,1.2368212E-1,-1.7976522E-1,-5.906146E-5,-1.8978526E-1,-9.7431764E-2,5.1794183E-1],"split_indices":[13,3,6,18,28,3,6,0,5,25,2,9,28,0,23,0,0,13,26,2,15,12,0,17,12,15,0,1,0,0,24,23,0,0,0,0,16,17,0,0,0,0,0,0,0,0,0,0,0,0,0,0,0],"split_type":[0,0,0,0,0,0,0,0,0,0,0,0,0,0,0,0,0,0,0,0,0,0,0,0,0,0,0,0,0,0,0,0,0,0,0,0,0,0,0,0,0,0,0,0,0,0,0,0,0,0,0,0,0],"sum_hessian":[1.2003845E2,5.2095325E1,6.794312E1,1.1080283E1,4.101504E1,6.0021645E1,7.9214797E0,8.149343E0,2.9309409E0,1.2966349E1,2.8048693E1,4.922476E1,1.0796889E1,1.7550997E0,6.16638E0,1.0000066E0,1.9309343E0,8.669856E0,4.296493E0,2.4302677E1,3.7460155E0,4.8224598E1,1.0001603E0,4.340878E0,6.4560113E0,4.893295E0,1.273085E0,2.7719042E0,5.8979516E0,1.5761554E0,2.7203374E0,2.3221306E1,1.0813724E0,1.0002491E0,2.7457664E0,4.5504894E1,2.7197027E0,2.983001E0,1.3578769E0,1.0001087E0,5.4559026E0,1.0000937E0,3.893201E0,1.2932341E0,1.4786702E0,1.1468343E0,1.5735031E0,1.8849464E1,4.371841E0,1.0000458E0,1.7196571E0,1.8375779E0,1.1454232E0],"tree_param":{"num_deleted":"0","num_feature":"29","num_nodes":"53","size_leaf_vector":"0"}},{"base_weights":[-4.1348526E-1,-1.1042289E-1,-6.775221E-1,-5.7101566E-1,2.8288478E-2,-8.043351E-1,7.334849E-2,5.966366E-1,-7.698909E-1,1.5202169E-1,-5.287604E-1,-9.259755E-1,-2.9738557E-1,1.1466469E0,-3.4078842E-1,7.684307E-3,-8.91368E-1,4.9019793E-1,-2.5881353E-1,1.1431891E-1,-6.499411E-1,-9.4674355E-1,-7.53449E-2,1.9209865E-1,-6.858279E-1,-6.624526E-1,5.768937E-1,9.626308E-1,-2.2121176E-2,9.962804E-2,-6.10336E-1,-6.2201187E-2,-7.517405E-1,-9.7172385E-1,-4.0313923E-1,-4.2996922E-1,6.9062734E-1,-1.6017932E-2,-8.107917E-1,-1.3920068E-3,-7.98189E-1,-3.5038412E-1,1.3632041E0,-2.8263396E-1,9.8199856E-1,-1.479905E-1,7.269856E-1,-8.081395E-1,-9.689772E-2,-5.74581E-1,-1.8298614E-4,-5.296399E-1,-1.110792E-1,1.4007217E0,-1.8397918E-1],"categories":[],"categories_nodes":[],"categories_segments":[],"categories_sizes":[],"default_left":[1,1,1,1,1,1,1,0,1,1,1,1,1,0,1,0,0,1,1,0,1,1,0,1,1,1,0,1,1,1,1,0,0,0,1,1,1,0,0,0,0,0,0,0,0,0,0,0,0,0,0,0,0,0,0],"id":26,"left_children":[1,3,5,7,9,11,13,-1,15,17,19,21,23,-1,25,-1,-1,27,29,-1,31,33,-1,35,37,39,-1,41,43,45,47,-1,-1,-1,49,51,53,-1,-1,-1,-1,-1,-1,-1,-1,-1,-1,-1,-1,-1,-1,-1,-1,-1,-1],"loss_changes":[8.362091E0,3.22881E0,5.4056892E0,3.1729832E0,2.8097508E0,2.6920624E0,4.404283E0,0E0,9.912596E-1,4.736499E0,6.525676E-1,6.0591125E-1,2.1824095E0,0E0,2.532981E0,0E0,0E0,4.509616E0,2.030744E0,0E0,3.3577156E-1,1.1526108E-1,0E0,2.0190864E0,5.0864863E-1,5.247681E-1,0E0,5.563672E0,2.8604412E0,1.4436632E0,7.3759556E-1,0E0,0E0,0E0,2.3127979E-1,3.927821E-2,2.4105077E0,0E0,0E0,0E0,0E0,0E0,0E0,0E0,0E0,0E0,0E0,0E0,0E0,0E0,0E0,0E0,0E0,0E0,0E0],"parents":[2147483647,0,0,1,1,2,2,3,3,4,4,5,5,6,6,8,8,9,9,10,10,11,11,12,12,14,14,17,17,18,18,20,20,21,21,23,23,24,24,25,25,27,27,28,28,29,29,30,30,34,34,35,35,36,36],"right_children":[2,4,6,8,10,12,14,-1,16,18,20,22,24,-1,26,-1,-1,28,30,-1,32,34,-1,36,38,40,-1,42,44,46,48,-1,-1,-1,50,52,54,-1,-1,-1,-1,-1,-1,-1,-1,-1,-1,-1,-1,-1,-1,-1,-1,-1,-1],"split_conditions":[-4.3168968E-1,-5.298548E-1,1.294971E0,-5.7621324E-1,1.140292E0,1.7313156E0,-1.3388784E0,1.7899099E-1,-1.1055272E0,1.2306309E-1,-1.298693E0,2.1779628E0,7.185E0,3.4399408E-1,2.8047113E0,2.3052923E-3,-2.674104E-1,-3.655608E-2,-3.9709803E-1,3.4295674E-2,-1.0232122E0,1.5746936E0,-2.260347E-2,-4.6958035E-1,-1.1462448E0,-9.548167E-1,1.730681E-1,-4.5035675E-1,1.3132594E0,-2.4822161E0,2.7527406E0,-1.8660357E-2,-2.2552216E-1,-2.9151717E-1,1.9485578E-1,-4.663726E-2,-5.004856E-2,-4.80538E-3,-2.4323751E-1,-4.1760204E-4,-2.394567E-1,-1.0511524E-1,4.0896127E-1,-8.479019E-2,2.945996E-1,-4.439715E-2,2.1809568E-1,-2.4244186E-1,-2.9069318E-2,-1.7237431E-1,-5.4895845E-5,-1.5889198E-1,-3.332376E-2,4.2021653E-1,-5.5193756E-2],"split_indices":[13,10,6,19,6,3,12,0,12,7,14,13,28,0,3,0,0,22,16,0,15,12,0,0,12,15,0,23,22,15,3,0,0,0,15,19,26,0,0,0,0,0,0,0,0,0,0,0,0,0,0,0,0,0,0],"split_type":[0,0,0,0,0,0,0,0,0,0,0,0,0,0,0,0,0,0,0,0,0,0,0,0,0,0,0,0,0,0,0,0,0,0,0,0,0,0,0,0,0,0,0,0,0,0,0,0,0,0,0,0,0,0,0],"sum_hessian":[1.04435455E2,4.928462E1,5.5150837E1,1.068578E1,3.859884E1,4.71214E1,8.029441E0,1.264062E0,9.421718E0,3.2178383E1,6.420456E0,3.7336178E1,9.78522E0,1.7431198E0,6.2863216E0,1.399602E0,8.022116E0,1.7543991E1,1.4634392E1,1.0270028E0,5.393453E0,3.633605E1,1.0001298E0,4.553157E0,5.2320633E0,4.860687E0,1.4256346E0,8.670011E0,8.8739805E0,7.6006837E0,7.0337086E0,1.0340979E0,4.359355E0,3.39867E1,2.3493502E0,2.0867803E0,2.4663768E0,1.0000329E0,4.2320304E0,1.0001299E0,3.860557E0,2.0560157E0,6.613995E0,7.6164613E0,1.257519E0,5.9975505E0,1.6031331E0,4.6632156E0,2.370493E0,1.3493441E0,1.0000061E0,1.0863502E0,1.0004302E0,1.0292125E0,1.4371642E0],"tree_param":{"num_deleted":"0","num_feature":"29","num_nodes":"55","size_leaf_vector":"0"}},{"base_weights":[-3.55003E-1,-7.187826E-1,-1.4885518E-1,-3.5275722E-1,-8.9797795E-1,7.8586113E-1,-1.994028E-1,-7.217104E-1,1.6106364E0,-5.6544784E-3,-9.439379E-1,-5.7927704E-1,1.9942505E0,-7.847561E-1,-1.04655676E-1,1.389725E-1,-8.881752E-1,-1.267579E-1,-8.60087E-1,9.295188E-2,-4.4168574E-1,9.4386077E-1,-2.3553487E-2,-9.758263E-3,-7.7228E-1,1.6098461E0,-5.1110923E-1,6.242253E-1,-1.836256E-1,2.0420192E-1,-5.1408607E-1,1.2693225E-1,-8.8527364E-1],"categories":[],"categories_nodes":[],"categories_segments":[],"categories_sizes":[],"default_left":[1,1,1,1,1,1,1,1,0,0,0,0,0,1,1,0,0,0,0,1,1,1,1,1,1,0,0,0,0,0,0,0,0],"id":27,"left_children":[1,3,5,7,9,11,13,15,-1,-1,-1,-1,-1,17,19,-1,-1,-1,-1,21,23,25,27,29,31,-1,-1,-1,-1,-1,-1,-1,-1],"loss_changes":[6.9442234E0,1.8968143E0,3.0519E0,1.0390595E1,8.9730644E-1,6.675042E0,3.1862102E0,1.7588177E0,0E0,0E0,0E0,0E0,0E0,2.9029274E-1,3.495908E0,0E0,0E0,0E0,0E0,3.3460002E0,2.755126E0,4.7588954E0,3.2736309E0,1.1193937E0,1.2245855E0,0E0,0E0,0E0,0E0,0E0,0E0,0E0,0E0],"parents":[2147483647,0,0,1,1,2,2,3,3,4,4,5,5,6,6,7,7,13,13,14,14,19,19,20,20,21,21,22,22,23,23,24,24],"right_children":[2,4,6,8,10,12,14,16,-1,-1,-1,-1,-1,18,20,-1,-1,-1,-1,22,24,26,28,30,32,-1,-1,-1,-1,-1,-1,-1,-1],"split_conditions":[3.171171E-1,-5.6371367E-1,4.0867433E-1,-6.8139756E-1,-1.6541512E0,2.1983069E-1,7.563969E-1,-5.4092336E-1,4.8319092E-1,-1.6963437E-3,-2.8318137E-1,-1.7378312E-1,5.982752E-1,-8.417152E-1,1.4765492E-1,4.1691754E-2,-2.6645258E-1,-3.8027372E-2,-2.580261E-1,9.016869E-1,-2.3763227E0,4.1893956E-1,-1.1055491E0,7.159871E-1,7.65E-1,4.8295385E-1,-1.5333277E-1,1.872676E-1,-5.508768E-2,6.1260577E-2,-1.5422583E-1,3.8079675E-2,-2.655821E-1],"split_indices":[3,4,3,4,15,6,3,25,0,0,0,0,0,6,7,0,0,0,0,3,13,4,12,16,28,0,0,0,0,0,0,0,0],"split_type":[0,0,0,0,0,0,0,0,0,0,0,0,0,0,0,0,0,0,0,0,0,0,0,0,0,0,0,0,0,0,0,0,0],"sum_hessian":[9.3025795E1,3.2748787E1,6.027701E1,1.1739065E1,2.100972E1,2.3461187E0,5.7930893E1,1.0414441E1,1.3246238E0,1.0841283E0,1.9925592E1,1.3460656E0,1.0000529E0,7.055981E0,5.0874912E1,1.7145829E0,8.699859E0,1.000399E0,6.0555825E0,3.252755E1,1.8347359E1,3.0620582E0,2.9465492E1,8.40092E0,9.94644E0,2.0275424E0,1.034516E0,5.2639046E0,2.4201588E1,6.3163295E0,2.084591E0,1.0965613E0,8.849878E0],"tree_param":{"num_deleted":"0","num_feature":"29","num_nodes":"33","size_leaf_vector":"0"}},{"base_weights":[-2.9607028E-1,-3.762988E-2,-5.6979346E-1,-1.1083879E-1,1.1071131E0,